{"learner":{"attributes":{"scikit_learn":"{\"_estimator_type\": \"regressor\"}"},"feature_names":["Present_Price","Kms_Driven","Fuel_Type","Seller_Type","Transmission","Owner","Age"],"feature_types":["float","int","int","int","int","int","int"],"gradient_booster":{"model":{"gbtree_model_param":{"num_parallel_tree":"1","num_trees":"100"},"iteration_indptr":[0,1,2,3,4,5,6,7,8,9,10,11,12,13,14,15,16,17,18,19,20,21,22,23,24,25,26,27,28,29,30,31,32,33,34,35,36,37,38,39,40,41,42,43,44,45,46,47,48,49,50,51,52,53,54,55,56,57,58,59,60,61,62,63,64,65,66,67,68,69,70,71,72,73,74,75,76,77,78,79,80,81,82,83,84,85,86,87,88,89,90,91,92,93,94,95,96,97,98,99,100],"tree_info":[0,0,0,0,0,0,0,0,0,0,0,0,0,0,0,0,0,0,0,0,0,0,0,0,0,0,0,0,0,0,0,0,0,0,0,0,0,0,0,0,0,0,0,0,0,0,0,0,0,0,0,0,0,0,0,0,0,0,0,0,0,0,0,0,0,0,0,0,0,0,0,0,0,0,0,0,0,0,0,0,0,0,0,0,0,0,0,0,0,0,0,0,0,0,0,0,0,0,0,0],"trees":[{"base_weights":[-8.389262E-4,-2.178959E5,4.085548E5,-1.1134991E5,-4.2265227E4,3.0529606E5,4.045973E5,1.6844432E4,-1.4359477E5,5.0292662E5,9.276001E4,-3.9113055E4,5.720682E4,-1.5293456E5,3.8945E3,4.0534553E5,2.8570847E5,1.5138656E5,-1.1287113E5,9.880808E4,9.500805E3,-7.738847E4,-5.129758E4,1.6262626E3,1.26262505E2,8.928243E4,1.597385E5,8.892476E4,2.7410494E5,-7.270707E4,-4.395798E4,1.9413059E4,3.9106484E4,-3.0115044E3,1.9960438E4,-1.4789563E4,-3.233165E4,3.339105E4,-8.19798E3,4.522096E4,1.2500202E5,-2.3489562E4,-5.873738E3],"categories":[],"categories_nodes":[],"categories_segments":[],"categories_sizes":[],"default_left":[0,0,0,0,0,0,0,0,0,0,0,0,0,0,0,0,0,0,0,0,0,0,0,0,0,0,0,0,0,0,0,0,0,0,0,0,0,0,0,0,0,0,0],"id":0,"left_children":[1,3,5,-1,7,9,-1,11,13,15,17,-1,19,21,23,25,-1,27,29,31,33,35,-1,-1,-1,-1,-1,37,39,41,-1,-1,-1,-1,-1,-1,-1,-1,-1,-1,-1,-1,-1],"loss_changes":[2.6617703E13,5.233516E12,9.683941E12,0E0,5.534578E11,3.9436922E12,0E0,3.580484E11,4.7431156E10,1.7629247E12,5.836931E11,0E0,9.2338864E10,3.04205E10,1.3624652E7,4.167324E11,0E0,2.59238E11,4.2156196E9,1.8456723E10,2.6299003E10,1.514795E9,0E0,0E0,0E0,0E0,0E0,7.068202E10,1.482535E11,5.464269E8,0E0,0E0,0E0,0E0,0E0,0E0,0E0,0E0,0E0,0E0,0E0,0E0,0E0],"parents":[2147483647,0,0,1,1,2,2,4,4,5,5,7,7,8,8,9,9,10,10,12,12,13,13,14,14,15,15,17,17,18,18,19,19,20,20,21,21,27,27,28,28,29,29],"right_children":[2,4,6,-1,8,10,-1,12,14,16,18,-1,20,22,24,26,-1,28,30,32,34,36,-1,-1,-1,-1,-1,38,40,42,-1,-1,-1,-1,-1,-1,-1,-1,-1,-1,-1,-1,-1],"split_conditions":[8.06E5,3.46E5,2.539E6,-1.1134991E5,1.1E1,1E1,4.045973E5,5.7E5,1E0,1.37E6,1.5E1,-3.9113055E4,3.1604E4,1.2E1,6.8E5,1.1E6,2.8570847E5,1.4E6,9E4,6.49E5,7.49E5,5.6E4,-5.129758E4,1.6262626E3,1.26262505E2,8.928243E4,1.597385E5,1.3E1,1E0,1.864E6,-4.395798E4,1.9413059E4,3.9106484E4,-3.0115044E3,1.9960438E4,-1.4789563E4,-3.233165E4,3.339105E4,-8.19798E3,4.522096E4,1.2500202E5,-2.3489562E4,-5.873738E3],"split_indices":[0,0,0,0,6,6,0,0,4,0,6,0,1,6,0,0,0,0,1,0,0,1,0,0,0,0,0,6,2,0,0,0,0,0,0,0,0,0,0,0,0,0,0],"split_type":[0,0,0,0,0,0,0,0,0,0,0,0,0,0,0,0,0,0,0,0,0,0,0,0,0,0,0,0,0,0,0,0,0,0,0,0,0,0,0,0,0,0,0],"sum_hessian":[2.97E2,1.94E2,1.03E2,1.03E2,9.1E1,9.4E1,9E0,5.8E1,3.3E1,4.8E1,4.6E1,1.2E1,4.6E1,3.1E1,2E0,4.1E1,7E0,3.6E1,1E1,2.4E1,2.2E1,7E0,2.4E1,1E0,1E0,2.4E1,1.7E1,2.5E1,1.1E1,6E0,4E0,1.3E1,1.1E1,1.7E1,5E0,5E0,2E0,2.1E1,4E0,7E0,4E0,5E0,1E0],"tree_param":{"num_deleted":"0","num_feature":"7","num_nodes":"43","size_leaf_vector":"1"}},{"base_weights":[2.985769E3,-1.5340744E5,2.9619434E5,-2.5300061E5,-1.8790285E4,2.2062116E5,9.8452E5,-8.371728E4,-5.7071945E4,2.5134373E4,-9.469807E4,3.6296147E5,6.752976E4,3.358486E5,1.50655E5,-2.2511863E4,4.165048E4,-1.01571414E5,3.3103333E3,2.9628284E5,2.3743333E5,1.112521E5,-8.567537E4,7.150643E4,7.38747E3,-7.1618625E4,-1.2143189E5,1.3823251E3,1.07325005E2,2.1189694E5,1.16085336E5,6.321628E4,2.060587E5,-3.3704277E4,-1.6315334E4,1.4005135E4,2.8352195E4,-4.6051665E3,1.1544588E4,-2.7283027E4,-1.3727131E4,-3.7600992E4,-9.429104E3,3.922182E4,7.085848E4,3.8320184E4,8.233631E3,3.3350457E4,9.500155E4],"categories":[],"categories_nodes":[],"categories_segments":[],"categories_sizes":[],"default_left":[0,0,0,0,0,0,0,0,0,0,0,0,0,0,0,0,0,0,0,0,0,0,0,0,0,0,0,0,0,0,0,0,0,0,0,0,0,0,0,0,0,0,0,0,0,0,0,0,0],"id":1,"left_children":[1,3,5,7,9,11,13,-1,-1,15,17,19,21,-1,-1,-1,23,25,27,29,-1,31,33,35,37,39,41,-1,-1,43,-1,45,47,-1,-1,-1,-1,-1,-1,-1,-1,-1,-1,-1,-1,-1,-1,-1,-1],"loss_changes":[1.3710475E13,2.609601E12,5.1927644E12,1.3007218E11,2.8245492E11,2.0456412E12,8.884375E10,0E0,0E0,9.246751E10,2.1219246E10,1.1654702E12,3.2436047E11,0E0,0E0,0E0,4.755061E10,8.554676E9,9.843772E6,2.5465586E11,0E0,1.5547594E11,3.0706237E9,9.861612E9,1.6852344E10,2.8354478E9,1.6835543E9,0E0,0E0,1.8419155E10,0E0,5.649843E10,9.07497E10,0E0,0E0,0E0,0E0,0E0,0E0,0E0,0E0,0E0,0E0,0E0,0E0,0E0,0E0,0E0,0E0],"parents":[2147483647,0,0,1,1,2,2,3,3,4,4,5,5,6,6,9,9,10,10,11,11,12,12,16,16,17,17,18,18,19,19,21,21,22,22,23,23,24,24,25,25,26,26,29,29,31,31,32,32],"right_children":[2,4,6,8,10,12,14,-1,-1,16,18,20,22,-1,-1,-1,24,26,28,30,-1,32,34,36,38,40,42,-1,-1,44,-1,46,48,-1,-1,-1,-1,-1,-1,-1,-1,-1,-1,-1,-1,-1,-1,-1,-1],"split_conditions":[8.06E5,4.41E5,2.539E6,1.26E5,1.1E1,1E1,8E4,-8.371728E4,-5.7071945E4,5.7E5,1E0,1.489E6,1.5E1,3.358486E5,1.50655E5,-2.2511863E4,3.1604E4,1.3E1,6.8E5,1.1E6,2.3743333E5,1.4E6,1.248E6,6.49E5,7.13E5,5.59E5,1E0,1.3823251E3,1.07325005E2,8.89E5,1.16085336E5,1.1E1,1E0,-3.3704277E4,-1.6315334E4,1.4005135E4,2.8352195E4,-4.6051665E3,1.1544588E4,-2.7283027E4,-1.3727131E4,-3.7600992E4,-9.429104E3,3.922182E4,7.085848E4,3.8320184E4,8.233631E3,3.3350457E4,9.500155E4],"split_indices":[0,0,0,0,6,6,1,0,0,0,4,0,6,0,0,0,1,6,0,0,0,0,0,0,0,0,5,0,0,0,0,6,2,0,0,0,0,0,0,0,0,0,0,0,0,0,0,0,0],"split_type":[0,0,0,0,0,0,0,0,0,0,0,0,0,0,0,0,0,0,0,0,0,0,0,0,0,0,0,0,0,0,0,0,0,0,0,0,0,0,0,0,0,0,0,0,0,0,0,0,0],"sum_hessian":[2.97E2,1.94E2,1.03E2,1.11E2,8.3E1,9.4E1,9E0,7.6E1,3.5E1,5.3E1,3E1,4.8E1,4.6E1,6E0,3E0,7E0,4.6E1,2.8E1,2E0,4.3E1,5E0,3.6E1,1E1,2.4E1,2.2E1,1.3E1,1.5E1,1E0,1E0,2.4E1,1.9E1,2.5E1,1.1E1,4E0,6E0,1.3E1,1.1E1,1.3E1,9E0,6E0,7E0,1.4E1,1E0,7E0,1.7E1,8E0,1.7E1,7E0,4E0],"tree_param":{"num_deleted":"0","num_feature":"7","num_nodes":"49","size_leaf_vector":"1"}},{"base_weights":[5.02438E3,-1.0691578E5,2.2117328E5,-1.8489234E5,-1.9506443E4,1.5711777E5,6.8849656E5,-5.9281004E4,-4.4575707E4,1.1725559E4,-7.496661E4,2.374453E5,2.779944E4,7.6280394E5,-1.9332742E4,-1.8059988E4,3.0568541E4,-5.5091902E4,-1.1715672E5,2.0161369E5,1.507319E5,-7.44169E3,1.2017055E5,2.4798883E5,9.511789E4,5.557651E4,1.1405232E4,-6.024952E4,2.8137917E3,-3.7271188E4,-8.0147393E3,1.4585511E5,2.631522E5,2.7806133E4,-7.01436E4,5.8174367E4,7.643625E3,1.8415266E4,8.0662506E1,-6.796558E2,1.2610923E4,-2.1931518E4,-1.3421154E4,1.1749781E3,9.122813E1,4.554287E4,-3.130425E3,8.3001016E4,3.893244E4,1.0461843E4,-1.693629E3,-2.7055738E4,-9.619279E3,1.0090547E4,-2.178914E3],"categories":[],"categories_nodes":[],"categories_segments":[],"categories_sizes":[],"default_left":[0,0,0,0,0,0,0,0,0,0,0,0,0,0,0,0,0,0,0,0,0,0,0,0,0,0,0,0,0,0,0,0,0,0,0,0,0,0,0,0,0,0,0,0,0,0,0,0,0,0,0,0,0,0,0],"id":2,"left_children":[1,3,5,7,9,11,13,-1,-1,15,17,19,21,23,-1,-1,25,27,29,31,-1,33,35,-1,-1,37,39,41,43,-1,-1,45,47,49,51,-1,53,-1,-1,-1,-1,-1,-1,-1,-1,-1,-1,-1,-1,-1,-1,-1,-1,-1,-1],"loss_changes":[7.2339785E12,1.3391217E12,2.945158E12,1.8634506E10,1.6369944E11,9.38691E11,7.205442E11,0E0,0E0,8.451299E10,2.2055158E10,4.3043075E11,1.180837E11,5.085751E10,0E0,0E0,2.2848672E10,7.6359107E9,3.084632E9,1.3661412E11,0E0,6.1623284E10,8.149965E10,0E0,0E0,6.728913E9,1.2239018E10,1.3161349E9,7.11209E6,0E0,0E0,2.8572123E10,5.563613E9,4.451916E9,4.7401943E9,0E0,2.18153E9,0E0,0E0,0E0,0E0,0E0,0E0,0E0,0E0,0E0,0E0,0E0,0E0,0E0,0E0,0E0,0E0,0E0,0E0],"parents":[2147483647,0,0,1,1,2,2,3,3,4,4,5,5,6,6,9,9,10,10,11,11,12,12,13,13,16,16,17,17,18,18,19,19,21,21,22,22,25,25,26,26,27,27,28,28,31,31,32,32,33,33,34,34,36,36],"right_children":[2,4,6,8,10,12,14,-1,-1,16,18,20,22,24,-1,-1,26,28,30,32,-1,34,36,-1,-1,38,40,42,44,-1,-1,46,48,50,52,-1,54,-1,-1,-1,-1,-1,-1,-1,-1,-1,-1,-1,-1,-1,-1,-1,-1,-1,-1],"split_conditions":[8.1E5,3.46E5,2.315E6,1.17E5,1.1E1,1.1E1,1.35154E5,-5.9281004E4,-4.4575707E4,5.7E5,1.4E1,1.489E6,1.861E6,1.2E1,-1.9332742E4,-1.8059988E4,2.7E4,1E0,1E0,1.1E6,1.507319E5,1.4E1,6E4,2.4798883E5,9.511789E4,1E1,7.49E5,4.99E5,6.8E5,-3.7271188E4,-8.0147393E3,6.2E4,1E1,1.3E1,1.248E6,5.8174367E4,1.3E1,1.8415266E4,8.0662506E1,-6.796558E2,1.2610923E4,-2.1931518E4,-1.3421154E4,1.1749781E3,9.122813E1,4.554287E4,-3.130425E3,8.3001016E4,3.893244E4,1.0461843E4,-1.693629E3,-2.7055738E4,-9.619279E3,1.0090547E4,-2.178914E3],"split_indices":[0,0,0,0,6,6,1,0,0,0,6,0,0,6,0,0,1,4,2,0,0,6,1,0,0,6,0,0,0,0,0,1,6,6,0,0,6,0,0,0,0,0,0,0,0,0,0,0,0,0,0,0,0,0,0],"split_type":[0,0,0,0,0,0,0,0,0,0,0,0,0,0,0,0,0,0,0,0,0,0,0,0,0,0,0,0,0,0,0,0,0,0,0,0,0,0,0,0,0,0,0,0,0,0,0,0,0,0,0,0,0,0,0],"sum_hessian":[2.97E2,1.96E2,1.01E2,1.03E2,9.3E1,9E1,1.1E1,7.3E1,3E1,6E1,3.3E1,5.5E1,3.5E1,1E1,1E0,1.2E1,4.8E1,2.4E1,9E0,5E1,5E0,2.6E1,9E0,8E0,2E0,2E1,2.8E1,2.2E1,2E0,8E0,1E0,2.8E1,2.2E1,1.7E1,9E0,5E0,4E0,1.8E1,2E0,2E1,8E0,1E1,1.2E1,1E0,1E0,2.7E1,1E0,1.9E1,3E0,1.4E1,3E0,5E0,4E0,1E0,3E0],"tree_param":{"num_deleted":"0","num_feature":"7","num_nodes":"55","size_leaf_vector":"1"}},{"base_weights":[5.2156187E3,-4.705595E4,2.5340527E5,-1.2217859E5,2.3739156E4,1.796532E5,5.4519856E5,-1.3404572E5,-7.839926E4,4.779981E4,-4.697484E4,3.6390012E5,9.65931E4,1.9430175E5,9.395704E4,-4.443009E4,-3.6034844E4,-4.6022984E4,-9.6641375E4,3.7660195E3,8.498675E4,-2.695171E4,-2.2711934E4,1.4343984E5,7.800126E4,1.4188752E5,-1.2713903E4,-1.4803706E4,-1.420997E3,-3.578583E3,-3.0357115E4,1.808032E4,-1.345415E4,1.24808164E5,6.0233992E4,-4.1944496E4,-2.3008333E3,8.122056E4,2.2049305E5,1.7187438E4,-3.5512703E4,9.783988E3,-3.4139314E3,-6.056963E3,3.641443E3,1.8265574E4,4.7106832E4,1.8779045E4,-2.6608594E3,-7.818188E3,-1.4584302E4,-6.5683726E3,5.3259224E3,2.9684318E4,-5.028485E3,8.552541E3,7.227827E4,7.898825E3,6.948938E2,-6.2114424E3,-1.6432828E4],"categories":[],"categories_nodes":[],"categories_segments":[],"categories_sizes":[],"default_left":[0,0,0,0,0,0,0,0,0,0,0,0,0,0,0,0,0,0,0,0,0,0,0,0,0,0,0,0,0,0,0,0,0,0,0,0,0,0,0,0,0,0,0,0,0,0,0,0,0,0,0,0,0,0,0,0,0,0,0,0,0],"id":3,"left_children":[1,3,5,7,9,11,13,15,17,19,21,23,25,-1,-1,-1,-1,27,29,31,33,35,-1,-1,-1,37,39,-1,-1,-1,-1,41,43,45,47,49,51,53,55,57,59,-1,-1,-1,-1,-1,-1,-1,-1,-1,-1,-1,-1,-1,-1,-1,-1,-1,-1,-1,-1],"loss_changes":[3.8779562E12,1.3165244E12,1.02111196E12,5.1835044E10,2.200278E11,6.229033E11,3.4903425E10,4.1785754E8,1.208941E10,1.5687818E11,1.6944366E10,2.9971448E10,1.552848E11,0E0,0E0,0E0,0E0,1.4124483E9,5.344051E9,1.1335518E10,4.373817E10,7.6647854E9,0E0,0E0,0E0,8.700412E10,7.4275185E9,0E0,0E0,0E0,0E0,1.1074698E10,3.8651034E9,2.9565387E10,6.1066936E9,1.10336E8,3.925076E9,2.5975775E10,2.8439511E10,6.187703E8,5.773737E8,0E0,0E0,0E0,0E0,0E0,0E0,0E0,0E0,0E0,0E0,0E0,0E0,0E0,0E0,0E0,0E0,0E0,0E0,0E0,0E0],"parents":[2147483647,0,0,1,1,2,2,3,3,4,4,5,5,6,6,7,7,8,8,9,9,10,10,11,11,12,12,17,17,18,18,19,19,20,20,21,21,25,25,26,26,31,31,32,32,33,33,34,34,35,35,36,36,37,37,38,38,39,39,40,40],"right_children":[2,4,6,8,10,12,14,16,18,20,22,24,26,-1,-1,-1,-1,28,30,32,34,36,-1,-1,-1,38,40,-1,-1,-1,-1,42,44,46,48,50,52,54,56,58,60,-1,-1,-1,-1,-1,-1,-1,-1,-1,-1,-1,-1,-1,-1,-1,-1,-1,-1,-1,-1],"split_conditions":[1.25E6,4.6E5,2.539E6,1.78E5,1.2E1,9E0,4.8E4,8E4,9E0,7.5E5,1.4E1,8E0,6.9341E4,1.9430175E5,9.395704E4,-4.443009E4,-3.6034844E4,2.587E4,5.4E3,3.5E4,2.1E4,7.85E5,-2.2711934E4,1.4343984E5,7.800126E4,1E0,1.5E1,-1.4803706E4,-1.420997E3,-3.578583E3,-3.0357115E4,1E1,7.13E5,8.5E5,7.8E4,3.5866E4,1E0,1.3E1,1.346E6,7.5E4,2.283E6,9.783988E3,-3.4139314E3,-6.056963E3,3.641443E3,1.8265574E4,4.7106832E4,1.8779045E4,-2.6608594E3,-7.818188E3,-1.4584302E4,-6.5683726E3,5.3259224E3,2.9684318E4,-5.028485E3,8.552541E3,7.227827E4,7.898825E3,6.948938E2,-6.2114424E3,-1.6432828E4],"split_indices":[0,0,0,0,6,6,1,0,6,0,6,6,1,0,0,0,0,1,1,1,1,0,0,0,0,2,6,0,0,0,0,6,0,0,1,1,2,6,0,1,0,0,0,0,0,0,0,0,0,0,0,0,0,0,0,0,0,0,0,0,0],"split_type":[0,0,0,0,0,0,0,0,0,0,0,0,0,0,0,0,0,0,0,0,0,0,0,0,0,0,0,0,0,0,0,0,0,0,0,0,0,0,0,0,0,0,0,0,0,0,0,0,0,0,0,0,0,0,0,0,0,0,0,0,0],"sum_hessian":[2.97E2,2.46E2,5.1E1,1.19E2,1.27E2,4.2E1,9E0,9.2E1,2.7E1,9.5E1,3.2E1,1.2E1,3E1,5E0,4E0,4.1E1,5.1E1,1.1E1,1.6E1,4.4E1,5.1E1,2E1,1.2E1,4E0,8E0,2.1E1,9E0,1E1,1E0,1E0,1.5E1,2.4E1,2E1,1.8E1,3.3E1,1.2E1,8E0,1.3E1,8E0,4E0,5E0,1.6E1,8E0,1.6E1,4E0,7E0,1.1E1,3.2E1,1E0,5E0,7E0,4E0,4E0,1.1E1,2E0,1E0,7E0,2E0,2E0,4E0,1E0],"tree_param":{"num_deleted":"0","num_feature":"7","num_nodes":"61","size_leaf_vector":"1"}},{"base_weights":[5.360999E3,-3.3309758E4,1.88944E5,-8.429165E4,1.9616701E4,1.2664115E5,3.8606672E5,-9.293292E4,-4.3694043E4,7.363811E4,2.7418342E3,7.279153E4,7.602087E4,4.296291E5,-1.3967907E4,-8.013789E4,-3.10475E4,-3.6542797E4,-2.447155E4,3.5910137E4,1.3211023E5,1.5047932E4,-4.3543125E4,3.927348E4,1.4558828E5,1.5793461E5,7.83614E4,-2.5090035E4,-1.526854E4,-4.1623267E3,-3.939178E4,3.37945E3,4.435969E4,4.807005E4,6.63156E4,-2.6296594E3,3.3274367E4,-2.8771744E4,-7.321438E4,6.600256E4,-1.2411598E4,1.6332634E5,-2.1081328E3,-1.2078469E3,-1.2339858E4,4.844863E3,-3.1551377E3,1.629534E4,4.0739775E3,4.957669E3,2.2389516E4,-1.7605139E3,8.1528706E3,1.3312599E4,2.8100388E3,-1.018969E4,9.977063E2,-2.415348E4,-5.509247E3,1.1838583E4,2.8443922E4,-5.7763857E3,-2.2647658E2,7.2696567E3,5.330523E4],"categories":[],"categories_nodes":[],"categories_segments":[],"categories_sizes":[],"default_left":[0,0,0,0,0,0,0,0,0,0,0,0,0,0,0,0,0,0,0,0,0,0,0,0,0,0,0,0,0,0,0,0,0,0,0,0,0,0,0,0,0,0,0,0,0,0,0,0,0,0,0,0,0,0,0,0,0,0,0,0,0,0,0,0,0],"id":4,"left_children":[1,3,5,7,9,11,13,15,17,19,21,-1,23,25,-1,27,-1,29,-1,31,33,35,37,39,41,-1,-1,-1,-1,-1,43,45,47,-1,49,51,53,55,57,59,61,63,-1,-1,-1,-1,-1,-1,-1,-1,-1,-1,-1,-1,-1,-1,-1,-1,-1,-1,-1,-1,-1,-1,-1],"loss_changes":[2.121883E12,6.681314E11,5.897362E11,4.0142045E10,1.110138E11,2.2229883E11,2.461582E11,5.6216125E9,3.5200983E9,5.9230896E10,5.4196433E10,0E0,7.097485E10,4.1863873E10,0E0,9.566945E8,0E0,8.742625E8,0E0,5.0726154E9,9.727967E9,2.4252461E10,6.659207E9,2.9830588E10,2.821872E10,0E0,0E0,0E0,0E0,0E0,1.0043085E9,1.0571494E9,3.8599905E9,0E0,8.3696845E8,3.924265E9,9.404039E9,2.6136156E9,9.229947E8,6.9635727E9,6.2359936E8,1.3668041E10,0E0,0E0,0E0,0E0,0E0,0E0,0E0,0E0,0E0,0E0,0E0,0E0,0E0,0E0,0E0,0E0,0E0,0E0,0E0,0E0,0E0,0E0,0E0],"parents":[2147483647,0,0,1,1,2,2,3,3,4,4,5,5,6,6,7,7,8,8,9,9,10,10,12,12,13,13,15,15,17,17,19,19,20,20,21,21,22,22,23,23,24,24,30,30,31,31,32,32,34,34,35,35,36,36,37,37,38,38,39,39,40,40,41,41],"right_children":[2,4,6,8,10,12,14,16,18,20,22,-1,24,26,-1,28,-1,30,-1,32,34,36,38,40,42,-1,-1,-1,-1,-1,44,46,48,-1,50,52,54,56,58,60,62,64,-1,-1,-1,-1,-1,-1,-1,-1,-1,-1,-1,-1,-1,-1,-1,-1,-1,-1,-1,-1,-1,-1,-1],"split_conditions":[1.25E6,4.99E5,2.315E6,3.45E5,9E0,9E0,1.35154E5,1E1,5.8E4,8.89E5,1.3E1,7.279153E4,1E0,1E1,-1.3967907E4,1.6E5,-3.10475E4,1.098E4,-2.447155E4,5.87E5,9.85E5,7.5E5,1.6E1,1.3E1,6.9341E4,1.5793461E5,7.83614E4,-2.5090035E4,-1.526854E4,-4.1623267E3,8E0,5.71E5,1.65E4,4.807005E4,9.9E5,1E0,1.1E1,1.021E6,1E0,1.479E6,7.7427E4,1.346E6,-2.1081328E3,-1.2078469E3,-1.2339858E4,4.844863E3,-3.1551377E3,1.629534E4,4.0739775E3,4.957669E3,2.2389516E4,-1.7605139E3,8.1528706E3,1.3312599E4,2.8100388E3,-1.018969E4,9.977063E2,-2.415348E4,-5.509247E3,1.1838583E4,2.8443922E4,-5.7763857E3,-2.2647658E2,7.2696567E3,5.330523E4],"split_indices":[0,0,0,0,6,6,1,6,1,0,6,0,2,6,0,0,0,1,0,0,0,0,6,6,1,0,0,0,0,0,6,0,1,0,0,4,6,0,3,0,1,0,0,0,0,0,0,0,0,0,0,0,0,0,0,0,0,0,0,0,0,0,0,0,0],"split_type":[0,0,0,0,0,0,0,0,0,0,0,0,0,0,0,0,0,0,0,0,0,0,0,0,0,0,0,0,0,0,0,0,0,0,0,0,0,0,0,0,0,0,0,0,0,0,0,0,0,0,0,0,0,0,0,0,0,0,0,0,0,0,0,0,0],"sum_hessian":[2.97E2,2.46E2,5.1E1,1.25E2,1.21E2,4E1,1.1E1,1.02E2,2.3E1,2.8E1,9.3E1,1.1E1,2.9E1,1E1,1E0,5E1,5.2E1,2.1E1,2E0,1.8E1,1E1,7.4E1,1.9E1,2E1,9E0,5E0,5E0,4.3E1,7E0,3E0,1.8E1,4E0,1.4E1,6E0,4E0,3.8E1,3.6E1,1.4E1,5E0,1.3E1,7E0,8E0,1E0,1E0,1.7E1,2E0,2E0,1E1,4E0,1E0,3E0,3.5E1,3E0,2.4E1,1.2E1,1.2E1,2E0,4E0,1E0,8E0,5E0,4E0,3E0,1E0,7E0],"tree_param":{"num_deleted":"0","num_feature":"7","num_nodes":"65","size_leaf_vector":"1"}},{"base_weights":[4.9453623E3,-1.1425029E4,2.4593295E5,-5.8797754E4,2.94351E4,3.2479203E5,2.09396E4,-7.030522E4,-4.075285E4,4.4036965E4,-2.0217857E4,1.07604555E5,4.511914E4,2.0416062E4,-1.9630758E4,-1.8165627E4,-2.3417068E4,-3.6547555E4,-2.4939252E4,1.1376482E4,7.8216836E4,-4.0630156E3,-3.5249484E4,2.0947917E2,-1.1872721E4,-4.5507668E4,-2.652639E4,2.9982467E4,4.0947437E3,5.2206023E4,1.072218E5,-1.9689803E4,5.3911953E3,-4.2259773E4,-1.4185614E4,-1.2528516E3,1.3471172E3,-6.9079253E3,-1.4992997E4,-6.0386323E3,-1.0026158E4,1.0345273E4,-6.3068955E3,2.4511877E1,9.049761E3,2.7392322E4,8.212855E3,5.1280332E4,2.0822613E4,-4.964375E2,-7.971855E3,-2.951522E3,3.4682659E3,-7.9580195E3,-1.685816E4,-4.724648E3,-9.554344E2],"categories":[],"categories_nodes":[],"categories_segments":[],"categories_sizes":[],"default_left":[0,0,0,0,0,0,0,0,0,0,0,0,0,0,0,0,0,0,0,0,0,0,0,0,0,0,0,0,0,0,0,0,0,0,0,0,0,0,0,0,0,0,0,0,0,0,0,0,0,0,0,0,0,0,0,0,0],"id":5,"left_children":[1,3,5,7,9,11,13,15,17,19,21,-1,-1,-1,23,-1,-1,25,-1,27,29,31,33,35,-1,37,39,41,43,45,47,49,51,53,55,-1,-1,-1,-1,-1,-1,-1,-1,-1,-1,-1,-1,-1,-1,-1,-1,-1,-1,-1,-1,-1,-1],"loss_changes":[1.1784381E12,5.437143E11,3.3031153E11,2.4129503E10,1.1036924E11,2.8798222E10,1.2804518E10,1.1705057E9,6.4070124E9,1.2972089E11,8.3559557E9,0E0,0E0,0E0,1.5911424E9,0E0,0E0,3.2823788E9,0E0,8.1417477E9,3.740559E10,2.7654528E9,2.0584694E9,7.507639E7,0E0,1.3609288E9,4.740444E8,4.6284206E9,4.705634E9,2.8568797E10,5.0774114E10,8.249779E8,1.2412838E9,1.3592924E9,5.302323E7,0E0,0E0,0E0,0E0,0E0,0E0,0E0,0E0,0E0,0E0,0E0,0E0,0E0,0E0,0E0,0E0,0E0,0E0,0E0,0E0,0E0,0E0],"parents":[2147483647,0,0,1,1,2,2,3,3,4,4,5,5,6,6,7,7,8,8,9,9,10,10,14,14,17,17,19,19,20,20,21,21,22,22,23,23,25,25,26,26,27,27,28,28,29,29,30,30,31,31,32,32,33,33,34,34],"right_children":[2,4,6,8,10,12,14,16,18,20,22,-1,-1,-1,24,-1,-1,26,-1,28,30,32,34,36,-1,38,40,42,44,46,48,50,52,54,56,-1,-1,-1,-1,-1,-1,-1,-1,-1,-1,-1,-1,-1,-1,-1,-1,-1,-1,-1,-1,-1,-1],"split_conditions":[1.864E6,5.7E5,1.3E1,1.4E5,1.2E1,8E4,2.091E6,2.0114E4,1.5E1,8.89E5,1.4E1,1.07604555E5,4.511914E4,2.0416062E4,2.315E6,-1.8165627E4,-2.3417068E4,3.46E5,-2.4939252E4,1.66E4,1E0,7.85E5,1.248E6,2.283E6,-1.1872721E4,4.3E3,1.2E1,1.1E1,1E0,2.3E4,3.8488E4,3.55E4,3.6198E4,1.6E1,1.861E6,-1.2528516E3,1.3471172E3,-6.9079253E3,-1.4992997E4,-6.0386323E3,-1.0026158E4,1.0345273E4,-6.3068955E3,2.4511877E1,9.049761E3,2.7392322E4,8.212855E3,5.1280332E4,2.0822613E4,-4.964375E2,-7.971855E3,-2.951522E3,3.4682659E3,-7.9580195E3,-1.685816E4,-4.724648E3,-9.554344E2],"split_indices":[0,0,6,0,6,1,0,1,6,0,6,0,0,0,0,0,0,0,0,1,2,0,0,0,0,1,6,6,4,1,1,1,1,6,0,0,0,0,0,0,0,0,0,0,0,0,0,0,0,0,0,0,0,0,0,0,0],"split_type":[0,0,0,0,0,0,0,0,0,0,0,0,0,0,0,0,0,0,0,0,0,0,0,0,0,0,0,0,0,0,0,0,0,0,0,0,0,0,0,0,0,0,0,0,0,0,0,0,0,0,0,0,0,0,0,0,0],"sum_hessian":[2.97E2,2.79E2,1.8E1,1.29E2,1.5E2,1.3E1,5E0,7.7E1,5.2E1,1.16E2,3.4E1,1E1,3E0,2E0,3E0,3.8E1,3.9E1,4.9E1,3E0,6E1,5.6E1,1.7E1,1.7E1,2E0,1E0,2.4E1,2.5E1,1.6E1,4.4E1,3.1E1,2.5E1,6E0,1.1E1,1.2E1,5E0,1E0,1E0,5E0,1.9E1,1.5E1,1E1,1.5E1,1E0,3.9E1,5E0,1.1E1,2E1,8E0,1.7E1,2E0,4E0,3E0,8E0,7E0,5E0,4E0,1E0],"tree_param":{"num_deleted":"0","num_feature":"7","num_nodes":"57","size_leaf_vector":"1"}},{"base_weights":[3.929027E3,-1.7596E4,1.0609735E5,-4.41904E4,7.473716E3,4.784611E4,1.774643E5,-1.7204309E4,-3.763416E4,2.0164918E4,-1.48273955E4,1.3684084E5,1.4811153E4,2.451395E5,9.5000414E4,-2.6654377E4,-4.366722E4,9.965482E3,4.7528582E4,-2.1875143E4,5.287875E3,6.1886426E4,7.9310414E4,3.145842E4,-1.4579976E4,1.2675788E4,7.792279E4,4.3835415E3,1.1268543E5,-9.565455E3,-1.1958854E4,-9.135235E2,-4.4404023E4,2.1495502E4,1.7706985E2,8.1612555E4,3.2703146E4,4.7309062E3,-2.5460791E4,2.0884875E4,-7.0708594E3,8.840257E3,2.9059496E4,-8.1065938E3,4.2025223E4,-5.988491E3,-8.930035E3,3.0558096E3,-1.0832157E3,6.250565E4,4.0716305E4,-4.201936E3,-7.536906E2,-1.24070205E4,-2.096114E4,3.0268518E3,1.0758812E4,-2.215013E3,4.3959507E3,2.9338451E4,1.05168755E2,3.5323806E3,1.3852701E4,6.9957427E3,-1.7237814E3,-6.685678E3,-1.8107504E4,1.3594344E4,-5.594866E3,-4.6413145E3,3.1903876E2,2.5921782E3,-4.9707563E3,1.4792271E4,1.1227001E3,-2.4776548E3,1.1450485E3,-2.9250564E3,2.4902148E4],"categories":[],"categories_nodes":[],"categories_segments":[],"categories_sizes":[],"default_left":[0,0,0,0,0,0,0,0,0,0,0,0,0,0,0,0,0,0,0,0,0,0,0,0,0,0,0,0,0,0,0,0,0,0,0,0,0,0,0,0,0,0,0,0,0,0,0,0,0,0,0,0,0,0,0,0,0,0,0,0,0,0,0,0,0,0,0,0,0,0,0,0,0,0,0,0,0,0,0],"id":6,"left_children":[1,3,5,7,9,11,13,-1,15,17,19,21,23,25,27,29,31,33,35,37,39,-1,41,43,45,-1,-1,47,49,-1,51,-1,53,55,57,59,61,63,65,67,69,-1,-1,71,73,75,-1,-1,-1,77,-1,-1,-1,-1,-1,-1,-1,-1,-1,-1,-1,-1,-1,-1,-1,-1,-1,-1,-1,-1,-1,-1,-1,-1,-1,-1,-1,-1,-1],"loss_changes":[6.572213E11,1.650086E11,2.0768417E11,8.193245E9,3.6526567E10,8.6171345E10,1.05069085E11,0E0,4.3341414E9,2.2412055E10,6.7787377E9,1.5601844E10,1.1712148E10,2.4578556E10,1.8736775E10,2.0783575E9,1.4211727E9,6.8806886E9,8.447824E9,3.4594499E9,2.6535434E9,0E0,2.3954514E9,6.6118164E9,9.9603674E8,0E0,0E0,1.7593872E8,3.0758748E9,0E0,1.5823923E8,0E0,1.06817126E9,4.2265856E9,3.829346E9,7.855747E9,4.2496246E9,1.1077206E9,2.0898816E9,6.6399565E9,5.630916E8,0E0,0E0,7.1006624E8,3.1609446E9,1.8735365E8,0E0,0E0,0E0,8.216103E9,0E0,0E0,0E0,0E0,0E0,0E0,0E0,0E0,0E0,0E0,0E0,0E0,0E0,0E0,0E0,0E0,0E0,0E0,0E0,0E0,0E0,0E0,0E0,0E0,0E0,0E0,0E0,0E0,0E0],"parents":[2147483647,0,0,1,1,2,2,3,3,4,4,5,5,6,6,8,8,9,9,10,10,11,11,12,12,13,13,14,14,15,15,16,16,17,17,18,18,19,19,20,20,22,22,23,23,24,24,27,27,28,28,30,30,32,32,33,33,34,34,35,35,36,36,37,37,38,38,39,39,40,40,43,43,44,44,45,45,49,49],"right_children":[2,4,6,8,10,12,14,-1,16,18,20,22,24,26,28,30,32,34,36,38,40,-1,42,44,46,-1,-1,48,50,-1,52,-1,54,56,58,60,62,64,66,68,70,-1,-1,72,74,76,-1,-1,-1,78,-1,-1,-1,-1,-1,-1,-1,-1,-1,-1,-1,-1,-1,-1,-1,-1,-1,-1,-1,-1,-1,-1,-1,-1,-1,-1,-1,-1,-1],"split_conditions":[1.25E6,4.6E5,1E0,7.87E4,1.1E1,2.3E4,4.8E4,-1.7204309E4,9E0,9.29E5,1E0,8E0,1.3E1,1.309E6,1.36E6,1.82E5,5.4E3,2.7E4,8E0,4.89E5,4.9562E4,6.1886426E4,1.2479E4,3E4,1.7E1,1.2675788E4,7.792279E4,1.346E6,6.4532E4,-9.565455E3,1.5001E4,-9.135235E2,1.6E1,7.7E5,4.1E4,9.85E5,1E0,1.2E1,1.16E6,9.54E5,5.3E4,8.840257E3,2.9059496E4,2.5E4,5.6701E4,2.283E6,-8.930035E3,3.0558096E3,-1.0832157E3,1.468E6,4.0716305E4,-4.201936E3,-7.536906E2,-1.24070205E4,-2.096114E4,3.0268518E3,1.0758812E4,-2.215013E3,4.3959507E3,2.9338451E4,1.05168755E2,3.5323806E3,1.3852701E4,6.9957427E3,-1.7237814E3,-6.685678E3,-1.8107504E4,1.3594344E4,-5.594866E3,-4.6413145E3,3.1903876E2,2.5921782E3,-4.9707563E3,1.4792271E4,1.1227001E3,-2.4776548E3,1.1450485E3,-2.9250564E3,2.4902148E4],"split_indices":[0,0,2,0,6,1,1,0,6,0,2,6,6,0,0,0,1,1,6,0,1,0,1,1,6,0,0,0,1,0,1,0,6,0,1,0,2,6,0,0,1,0,0,1,1,0,0,0,0,0,0,0,0,0,0,0,0,0,0,0,0,0,0,0,0,0,0,0,0,0,0,0,0,0,0,0,0,0,0],"split_type":[0,0,0,0,0,0,0,0,0,0,0,0,0,0,0,0,0,0,0,0,0,0,0,0,0,0,0,0,0,0,0,0,0,0,0,0,0,0,0,0,0,0,0,0,0,0,0,0,0,0,0,0,0,0,0,0,0,0,0,0,0,0,0,0,0,0,0,0,0,0,0,0,0,0,0,0,0,0,0],"sum_hessian":[2.97E2,2.46E2,5.1E1,1.19E2,1.27E2,2.9E1,2.2E1,3.7E1,8.2E1,8.1E1,4.6E1,7E0,2.2E1,1.1E1,1.1E1,3.1E1,5.1E1,6E1,2.1E1,3.4E1,1.2E1,2E0,5E0,1.4E1,8E0,1E0,1E1,2E0,9E0,2.2E1,9E0,1E0,5E1,2.7E1,3.3E1,5E0,1.6E1,4E0,3E1,5E0,7E0,2E0,3E0,3E0,1.1E1,6E0,2E0,1E0,1E0,4E0,5E0,7E0,2E0,4.7E1,3E0,1.6E1,1.1E1,2.2E1,1.1E1,4E0,1E0,7E0,9E0,1E0,3E0,2.9E1,1E0,3E0,2E0,3E0,4E0,1E0,2E0,9E0,2E0,5E0,1E0,1E0,3E0],"tree_param":{"num_deleted":"0","num_feature":"7","num_nodes":"79","size_leaf_vector":"1"}},{"base_weights":[3.553238E3,-5.6101753E3,1.38406E5,-3.0006828E4,1.543072E4,2.209561E5,5.8282652E4,-2.6777648E4,-1.423881E4,7.11427E3,4.3839848E4,8.1992086E4,7.4684086E4,-1.4120492E4,8.719889E4,-3.0944715E4,-1.3784158E4,2.8917758E4,9.653993E0,5.508313E4,-7.396107E3,3.0186863E4,6.709575E3,6.2225E2,-8.752309E3,1.1352426E4,2.9203344E4,-2.0165248E4,-3.318451E4,-1.1440874E4,-2.274375E4,1.3841224E4,5.233016E4,4.1744053E3,-2.4979596E4,3.5269633E4,8.722045E4,-8.1393804E3,-4.4047034E2,-6.932766E2,9.732891E2,-8.830001E3,-4.15523E3,-1.0598786E4,-7.881177E3,-5.0028867E3,-5.7603705E2,-1.4667406E3,-9.905135E3,6.305544E3,-3.1376362E3,2.0331877E4,6.073279E3,3.0601395E2,8.473345E3,-5.553139E3,-1.5391379E4,1.957638E4,6.8770005E3,3.1352963E4,1.0547658E4,-5.939016E2,-2.6926165E3],"categories":[],"categories_nodes":[],"categories_segments":[],"categories_sizes":[],"default_left":[0,0,0,0,0,0,0,0,0,0,0,0,0,0,0,0,0,0,0,0,0,0,0,0,0,0,0,0,0,0,0,0,0,0,0,0,0,0,0,0,0,0,0,0,0,0,0,0,0,0,0,0,0,0,0,0,0,0,0,0,0,0,0],"id":7,"left_children":[1,3,5,7,9,11,13,15,-1,17,19,21,-1,23,25,27,29,31,33,35,37,-1,-1,39,-1,-1,-1,41,43,45,47,49,51,53,55,57,59,61,-1,-1,-1,-1,-1,-1,-1,-1,-1,-1,-1,-1,-1,-1,-1,-1,-1,-1,-1,-1,-1,-1,-1,-1,-1],"loss_changes":[3.6901854E11,1.4419472E11,1.12791716E11,6.056919E9,3.5363836E10,1.4595817E10,2.4261181E10,5.637669E9,0E0,1.8278562E10,1.9993444E10,1.0822308E9,0E0,9.0589485E8,3.2243302E8,1.3589135E9,3.4864333E8,9.512045E9,9.470935E9,1.4752842E10,1.889168E7,0E0,0E0,3.0570058E7,0E0,0E0,0E0,5.8721946E8,8.023245E7,1.2141061E9,7.557097E8,3.5335683E9,4.0784302E9,5.893391E9,1.2642268E9,5.538013E9,5.3267087E9,1.3129056E7,0E0,0E0,0E0,0E0,0E0,0E0,0E0,0E0,0E0,0E0,0E0,0E0,0E0,0E0,0E0,0E0,0E0,0E0,0E0,0E0,0E0,0E0,0E0,0E0,0E0],"parents":[2147483647,0,0,1,1,2,2,3,3,4,4,5,5,6,6,7,7,9,9,10,10,11,11,13,13,14,14,15,15,16,16,17,17,18,18,19,19,20,20,23,23,27,27,28,28,29,29,30,30,31,31,32,32,33,33,34,34,35,35,36,36,37,37],"right_children":[2,4,6,8,10,12,14,16,-1,18,20,22,-1,24,26,28,30,32,34,36,38,-1,-1,40,-1,-1,-1,42,44,46,48,50,52,54,56,58,60,62,-1,-1,-1,-1,-1,-1,-1,-1,-1,-1,-1,-1,-1,-1,-1,-1,-1,-1,-1,-1,-1,-1,-1,-1,-1],"split_conditions":[1.864E6,5.7E5,1E1,1.4E1,1.25E6,1E0,1E0,2.28E5,-1.423881E4,9E0,1.3E1,1.977E6,7.4684086E4,2.315E6,2.091E6,5.2E3,5.42E4,8.89E5,1.4E1,1E0,1.861E6,3.0186863E4,6.709575E3,2.283E6,-8.752309E3,1.1352426E4,2.9203344E4,5.7E4,1.17E5,2.8569E4,4.6E5,8.12E5,9.85E5,1E0,1.16E6,2.3E4,5.9E4,1.4E1,-4.4047034E2,-6.932766E2,9.732891E2,-8.830001E3,-4.15523E3,-1.0598786E4,-7.881177E3,-5.0028867E3,-5.7603705E2,-1.4667406E3,-9.905135E3,6.305544E3,-3.1376362E3,2.0331877E4,6.073279E3,3.0601395E2,8.473345E3,-5.553139E3,-1.5391379E4,1.957638E4,6.8770005E3,3.1352963E4,1.0547658E4,-5.939016E2,-2.6926165E3],"split_indices":[0,0,6,6,0,4,2,0,0,6,6,0,0,0,0,1,1,0,6,2,0,0,0,0,0,0,0,0,0,1,0,0,0,4,0,1,1,6,0,0,0,0,0,0,0,0,0,0,0,0,0,0,0,0,0,0,0,0,0,0,0,0,0],"split_type":[0,0,0,0,0,0,0,0,0,0,0,0,0,0,0,0,0,0,0,0,0,0,0,0,0,0,0,0,0,0,0,0,0,0,0,0,0,0,0,0,0,0,0,0,0,0,0,0,0,0,0,0,0,0,0,0,0,0,0,0,0,0,0],"sum_hessian":[2.97E2,2.79E2,1.8E1,1.29E2,1.5E2,8E0,1E1,1.11E2,1.8E1,1.17E2,3.3E1,2E0,6E0,3E0,7E0,8.3E1,2.8E1,2.8E1,8.9E1,2.7E1,6E0,1E0,1E0,2E0,1E0,2E0,5E0,1.6E1,6.7E1,2.4E1,4E0,1.8E1,1E1,7.7E1,1.2E1,1.8E1,9E0,5E0,1E0,1E0,1E0,5E0,1.1E1,4.8E1,1.9E1,1.5E1,9E0,2E0,2E0,1.4E1,4E0,6E0,4E0,6.9E1,8E0,1.1E1,1E0,4E0,1.4E1,6E0,3E0,1E0,4E0],"tree_param":{"num_deleted":"0","num_feature":"7","num_nodes":"63","size_leaf_vector":"1"}},{"base_weights":[3.0343943E3,-3.8579065E3,1.0444544E5,-1.6850764E4,1.7957338E4,1.6706706E5,4.371452E4,-2.25674E4,-4.520111E3,2.623044E4,-6.9142305E3,6.969325E4,5.5479598E4,-1.2002414E4,1.9832602E4,-1.8743121E4,-3.0970074E4,-1.5962985E3,-2.5176443E4,1.6326509E4,4.4699992E4,-3.4976113E3,-3.3081312E4,2.5658832E4,5.7031313E3,5.289167E2,-7.4394614E3,-8.1163647E3,-1.5223486E4,-2.7195566E4,-1.2816675E4,5.701028E2,-1.529512E4,-8.845602E3,1.0153594E2,5.0741953E4,9.98629E3,3.0803121E4,6.5244355E4,-6.1916143E3,-1.1097452E3,-1.8039188E3,-1.3082673E4,-5.892844E2,8.2729694E2,-5.0723887E3,-1.7629689E3,-3.4897476E3,-8.36753E3,7.1450256E2,-2.4318389E3,4.326094E2,-5.4974956E3,1.9710707E4,1.17215E3,1.7639775E2,6.063676E3,5.116863E3,2.239598E4,2.6156863E4,7.758379E3,-3.9407815E3,6.3403503E2],"categories":[],"categories_nodes":[],"categories_segments":[],"categories_sizes":[],"default_left":[0,0,0,0,0,0,0,0,0,0,0,0,0,0,0,0,0,0,0,0,0,0,0,0,0,0,0,0,0,0,0,0,0,0,0,0,0,0,0,0,0,0,0,0,0,0,0,0,0,0,0,0,0,0,0,0,0,0,0,0,0,0,0],"id":8,"left_children":[1,3,5,7,9,11,13,15,17,19,21,23,-1,25,-1,27,29,31,33,35,37,39,41,-1,-1,43,-1,-1,45,47,-1,49,51,-1,-1,53,55,57,59,-1,61,-1,-1,-1,-1,-1,-1,-1,-1,-1,-1,-1,-1,-1,-1,-1,-1,-1,-1,-1,-1,-1,-1],"loss_changes":[2.0869166E11,7.9666455E10,6.495509E10,1.2304208E10,2.178669E10,2.7676508E9,1.4518536E10,3.2756244E9,3.4023393E9,1.3720982E10,2.2981745E9,7.8191514E8,0E0,6.5450925E8,0E0,2.0746568E9,4.3505664E8,1.5222542E9,7.795661E8,1.1057953E10,5.6988303E9,1.00036256E9,5.926674E8,0E0,0E0,2.208688E7,0E0,0E0,8.768092E8,6.00064E5,0E0,7.265991E8,3.8140403E8,0E0,0E0,5.3486264E9,4.40902E9,9.577172E9,6.3878595E9,0E0,9.1930566E8,0E0,0E0,0E0,0E0,0E0,0E0,0E0,0E0,0E0,0E0,0E0,0E0,0E0,0E0,0E0,0E0,0E0,0E0,0E0,0E0,0E0,0E0],"parents":[2147483647,0,0,1,1,2,2,3,3,4,4,5,5,6,6,7,7,8,8,9,9,10,10,11,11,13,13,15,15,16,16,17,17,18,18,19,19,20,20,21,21,22,22,25,25,28,28,29,29,31,31,32,32,35,35,36,36,37,37,38,38,40,40],"right_children":[2,4,6,8,10,12,14,16,18,20,22,24,-1,26,-1,28,30,32,34,36,38,40,42,-1,-1,44,-1,-1,46,48,-1,50,52,-1,-1,54,56,58,60,-1,62,-1,-1,-1,-1,-1,-1,-1,-1,-1,-1,-1,-1,-1,-1,-1,-1,-1,-1,-1,-1,-1,-1],"split_conditions":[1.864E6,7.27E5,1E1,4.6E5,1.2E1,1E0,1E0,1.2E1,5.6E4,1.204E6,2E1,1.977E6,5.5479598E4,2.315E6,1.9832602E4,7.4E4,1.7E1,1.3E1,1E0,8E0,1E0,7.7E5,8.01E5,2.5658832E4,5.7031313E3,2.283E6,-7.4394614E3,-8.1163647E3,3.6E5,5.4E3,-1.2816675E4,7E5,2.0114E4,-8.845602E3,1.0153594E2,1.6E4,1E0,1E0,1.37E6,-6.1916143E3,3.8488E4,-1.8039188E3,-1.3082673E4,-5.892844E2,8.2729694E2,-5.0723887E3,-1.7629689E3,-3.4897476E3,-8.36753E3,7.1450256E2,-2.4318389E3,4.326094E2,-5.4974956E3,1.9710707E4,1.17215E3,1.7639775E2,6.063676E3,5.116863E3,2.239598E4,2.6156863E4,7.758379E3,-3.9407815E3,6.3403503E2],"split_indices":[0,0,6,0,6,4,2,6,1,0,6,0,0,0,0,0,6,6,5,6,2,0,0,0,0,0,0,0,0,1,0,0,1,0,0,1,2,4,0,0,1,0,0,0,0,0,0,0,0,0,0,0,0,0,0,0,0,0,0,0,0,0,0],"split_type":[0,0,0,0,0,0,0,0,0,0,0,0,0,0,0,0,0,0,0,0,0,0,0,0,0,0,0,0,0,0,0,0,0,0,0,0,0,0,0,0,0,0,0,0,0,0,0,0,0,0,0,0,0,0,0,0,0,0,0,0,0,0,0],"sum_hessian":[2.97E2,2.79E2,1.8E1,1.75E2,1.04E2,8E0,1E1,1.19E2,5.6E1,7.8E1,2.6E1,2E0,6E0,3E0,7E0,8.4E1,3.5E1,5E1,6E0,5.2E1,2.6E1,2.4E1,2E0,1E0,1E0,2E0,1E0,2.3E1,6.1E1,2.9E1,6E0,4.4E1,6E0,5E0,1E0,7E0,4.5E1,1.7E1,9E0,2E0,2.2E1,1E0,1E0,1E0,1E0,5.1E1,1E1,2E0,2.7E1,3.7E1,7E0,1E0,5E0,5E0,2E0,2.4E1,2.1E1,1.4E1,3E0,5E0,4E0,4E0,1.8E1],"tree_param":{"num_deleted":"0","num_feature":"7","num_nodes":"63","size_leaf_vector":"1"}},{"base_weights":[2.4881252E3,-2.6683406E3,7.8347195E4,-1.2108896E4,1.3181242E4,1.05589336E5,1.7243177E3,-1.6127393E4,-3.436467E3,1.9482207E4,-5.7431074E3,3.7978797E4,1.6944344E4,1.3960531E4,-1.5165406E4,-1.4525095E4,-8.801296E3,3.1826117E2,-1.307785E4,1.1940314E4,3.3565098E4,-2.8282625E3,-2.8119115E4,6.8365596E3,1.0265063E3,-5.008922E2,-6.323541E3,-2.088676E4,-1.2175684E4,-8.0847864E2,6.9771895E3,1.7129204E3,-1.4711004E4,3.8129742E4,7.1260596E3,2.3090664E4,4.906257E4,-4.9532925E3,-9.205931E2,-1.5333306E3,-1.1120271E4,-4.683574E3,-7.0144644E3,-1.3999326E3,-4.0568518E3,7.350595E2,-2.4046934E3,-5.1125314E2,-4.9742896E3,1.415254E4,-3.7782002E3,-9.886359E3,2.6247188E3,3.6841375E3,1.735688E4,-5.0686877E2,1.858854E4,-2.994994E3,4.5383563E2],"categories":[],"categories_nodes":[],"categories_segments":[],"categories_sizes":[],"default_left":[0,0,0,0,0,0,0,0,0,0,0,0,0,0,0,0,0,0,0,0,0,0,0,0,0,0,0,0,0,0,0,0,0,0,0,0,0,0,0,0,0,0,0,0,0,0,0,0,0,0,0,0,0,0,0,0,0,0,0],"id":9,"left_children":[1,3,5,7,9,11,13,15,17,19,21,-1,-1,23,25,27,-1,29,31,33,35,37,39,-1,-1,-1,-1,41,43,45,-1,-1,47,49,51,53,55,-1,57,-1,-1,-1,-1,-1,-1,-1,-1,-1,-1,-1,-1,-1,-1,-1,-1,-1,-1,-1,-1],"loss_changes":[1.1677613E11,4.2055692E10,3.9477993E10,6.0782E9,1.2632261E10,7.292109E9,1.4517148E9,2.11388E9,2.067606E9,7.98994E9,1.6814817E9,0E0,0E0,2.9417235E8,2.042105E8,1.3748224E9,0E0,1.1043487E9,5.749243E8,6.410663E9,3.2499507E9,6.373524E8,4.282025E8,0E0,0E0,0E0,0E0,3.438592E6,7.664179E8,9.825587E8,0E0,0E0,3.3657702E8,4.2646528E9,3.280663E9,6.054317E9,6.6513224E9,0E0,5.2232214E8,0E0,0E0,0E0,0E0,0E0,0E0,0E0,0E0,0E0,0E0,0E0,0E0,0E0,0E0,0E0,0E0,0E0,0E0,0E0,0E0],"parents":[2147483647,0,0,1,1,2,2,3,3,4,4,5,5,6,6,7,7,8,8,9,9,10,10,13,13,14,14,15,15,17,17,18,18,19,19,20,20,21,21,22,22,27,27,28,28,29,29,32,32,33,33,34,34,35,35,36,36,38,38],"right_children":[2,4,6,8,10,12,14,16,18,20,22,-1,-1,24,26,28,-1,30,32,34,36,38,40,-1,-1,-1,-1,42,44,46,-1,-1,48,50,52,54,56,-1,58,-1,-1,-1,-1,-1,-1,-1,-1,-1,-1,-1,-1,-1,-1,-1,-1,-1,-1,-1,-1],"split_conditions":[1.864E6,7.27E5,1.3E1,4.6E5,1.2E1,1E1,8.3E4,1.6E1,4.5078E4,1.204E6,2E1,3.7978797E4,1.6944344E4,5.0456E4,2.283E6,7.3E4,-8.801296E3,4.3535E4,4.89E5,8E0,1E0,7.7E5,8.01E5,6.8365596E3,1.0265063E3,-5.008922E2,-6.323541E3,9E0,5.4E3,6.8E5,6.9771895E3,1.7129204E3,1E1,9.85E5,4.1E3,1E0,1.346E6,-4.9532925E3,3.8488E4,-1.5333306E3,-1.1120271E4,-4.683574E3,-7.0144644E3,-1.3999326E3,-4.0568518E3,7.350595E2,-2.4046934E3,-5.1125314E2,-4.9742896E3,1.415254E4,-3.7782002E3,-9.886359E3,2.6247188E3,3.6841375E3,1.735688E4,-5.0686877E2,1.858854E4,-2.994994E3,4.5383563E2],"split_indices":[0,0,6,0,6,6,1,6,1,0,6,0,0,1,0,0,0,1,0,6,2,0,0,0,0,0,0,6,1,0,0,0,6,0,1,4,0,0,1,0,0,0,0,0,0,0,0,0,0,0,0,0,0,0,0,0,0,0,0],"split_type":[0,0,0,0,0,0,0,0,0,0,0,0,0,0,0,0,0,0,0,0,0,0,0,0,0,0,0,0,0,0,0,0,0,0,0,0,0,0,0,0,0,0,0,0,0,0,0,0,0,0,0,0,0,0,0,0,0,0,0],"sum_hessian":[2.97E2,2.79E2,1.8E1,1.75E2,1.04E2,1.3E1,5E0,1.19E2,5.6E1,7.8E1,2.6E1,8E0,5E0,3E0,2E0,1.08E2,1.1E1,4.1E1,1.5E1,5.2E1,2.6E1,2.4E1,2E0,1E0,2E0,1E0,1E0,2.7E1,8.1E1,4E1,1E0,1E0,1.4E1,7E0,4.5E1,1.7E1,9E0,2E0,2.2E1,1E0,1E0,1.1E1,1.6E1,1.3E1,6.8E1,2.8E1,1.2E1,2E0,1.2E1,6E0,1E0,1E0,4.4E1,1.4E1,3E0,2E0,7E0,4E0,1.8E1],"tree_param":{"num_deleted":"0","num_feature":"7","num_nodes":"59","size_leaf_vector":"1"}},{"base_weights":[1.9216458E3,-2.6720857E3,5.0081914E4,-1.0229222E4,6.4911597E3,2.574138E4,1.816497E4,-9.293251E3,-7.704309E3,2.409731E4,6.15821E2,1.0547855E4,-1.1001953E3,-1.2713863E4,-5.5444155E3,7.390869E3,3.1700812E4,-4.3891387E3,9.577195E3,-8.6821045E3,1.44303545E4,-9.852865E3,-4.5925703E3,-6.3413423E3,7.41653E3,1.3112808E4,-5.5365E3,1.5524888E4,4.2539016E4,1.5437156E4,-1.1189825E4,1.2814885E4,-8.445169E3,-3.2518438E3,-5.375011E3,5.811075E3,6.825844E2,-3.9491448E3,-2.2813857E3,-2.1316655E3,1.458495E3,5.197544E3,-4.3630264E3,1.05436875E4,6.2855896E2,8.353257E3,1.5777944E4,2.1693088E3,9.61333E3,7.858571E3,-3.7808164E3,2.1607905E3,1.5089993E4,-1.494054E3,5.4922504E2],"categories":[],"categories_nodes":[],"categories_segments":[],"categories_sizes":[],"default_left":[0,0,0,0,0,0,0,0,0,0,0,0,0,0,0,0,0,0,0,0,0,0,0,0,0,0,0,0,0,0,0,0,0,0,0,0,0,0,0,0,0,0,0,0,0,0,0,0,0,0,0,0,0,0,0],"id":10,"left_children":[1,3,5,7,9,-1,11,13,-1,15,17,-1,19,21,23,25,27,29,31,33,35,37,-1,39,-1,-1,41,43,45,47,49,51,-1,53,-1,-1,-1,-1,-1,-1,-1,-1,-1,-1,-1,-1,-1,-1,-1,-1,-1,-1,-1,-1,-1],"loss_changes":[6.6061955E10,1.8971073E10,2.8085502E10,1.9307018E9,1.2811981E10,0E0,4.9497226E9,1.763243E9,0E0,3.703554E9,4.258059E9,0E0,1.0672955E9,3.9850086E8,1.8451643E9,5.406524E9,3.021265E9,8.3975163E9,4.5138724E9,2.426154E8,1.3606163E8,1.8275994E8,0E0,6.252836E8,0E0,0E0,2.1051839E9,2.5613673E9,3.0851072E8,1.9487887E9,2.7599053E9,6.369731E9,0E0,5.303961E7,0E0,0E0,0E0,0E0,0E0,0E0,0E0,0E0,0E0,0E0,0E0,0E0,0E0,0E0,0E0,0E0,0E0,0E0,0E0,0E0,0E0],"parents":[2147483647,0,0,1,1,2,2,3,3,4,4,6,6,7,7,9,9,10,10,12,12,13,13,14,14,15,15,16,16,17,17,18,18,19,19,20,20,21,21,23,23,26,26,27,27,28,28,29,29,30,30,31,31,33,33],"right_children":[2,4,6,8,10,-1,12,14,-1,16,18,-1,20,22,24,26,28,30,32,34,36,38,-1,40,-1,-1,42,44,46,48,50,52,-1,54,-1,-1,-1,-1,-1,-1,-1,-1,-1,-1,-1,-1,-1,-1,-1,-1,-1,-1,-1,-1,-1],"split_conditions":[1.609E6,6.1E5,1.1E1,6.0076E4,9E0,2.574138E4,1.3E1,1.4E5,-7.704309E3,1.25E4,1E0,1.0547855E4,1E0,1.9434E4,1E0,3.493E3,9.4E5,3.1604E4,1.37E6,2.315E6,5.0456E4,6.4E4,-4.5925703E3,5.4242E4,7.41653E3,1.3112808E4,7.7E5,1.65E4,3E4,2.6E4,6.79E5,1.346E6,-8.445169E3,2.283E6,-5.375011E3,5.811075E3,6.825844E2,-3.9491448E3,-2.2813857E3,-2.1316655E3,1.458495E3,5.197544E3,-4.3630264E3,1.05436875E4,6.2855896E2,8.353257E3,1.5777944E4,2.1693088E3,9.61333E3,7.858571E3,-3.7808164E3,2.1607905E3,1.5089993E4,-1.494054E3,5.4922504E2],"split_indices":[0,0,6,1,6,0,6,0,0,1,2,0,2,1,4,1,0,1,0,0,1,0,0,1,0,0,0,1,1,1,0,0,0,0,0,0,0,0,0,0,0,0,0,0,0,0,0,0,0,0,0,0,0,0,0],"split_type":[0,0,0,0,0,0,0,0,0,0,0,0,0,0,0,0,0,0,0,0,0,0,0,0,0,0,0,0,0,0,0,0,0,0,0,0,0,0,0,0,0,0,0,0,0,0,0,0,0,0,0,0,0,0,0],"sum_hessian":[2.97E2,2.72E2,2.5E1,1.49E2,1.23E2,1.1E1,1.4E1,1.42E2,7E0,3E1,9.3E1,7E0,7E0,7.3E1,6.9E1,1E1,2E1,6E1,3.3E1,5E0,2E0,3.7E1,3.6E1,6.8E1,1E0,2E0,8E0,9E0,1.1E1,1.5E1,4.5E1,3.1E1,2E0,4E0,1E0,1E0,1E0,1.3E1,2.4E1,6.4E1,4E0,2E0,6E0,3E0,6E0,6E0,5E0,1.1E1,4E0,1E0,4.4E1,2.8E1,3E0,3E0,1E0],"tree_param":{"num_deleted":"0","num_feature":"7","num_nodes":"55","size_leaf_vector":"1"}},{"base_weights":[1.6760057E3,-1.6428707E3,3.6459746E4,-6.4603413E3,6.2476377E3,6.9955766E4,1.7686195E4,-5.565452E3,-1.7779256E4,1.6442004E4,-9.234176E2,4.258334E4,3.315185E4,2.9485342E4,-7.4840234E2,-8.384092E3,-1.5699462E3,-8.896446E3,-6.8559595E3,1.3420789E4,1.5675385E4,-3.197064E4,1.19713E3,2.482359E4,-1.15643125E4,1.7605032E3,9.3780625E3,-7.130776E3,1.22658125E4,-1.1573597E4,-6.8320957E3,-3.524768E2,-2.0656969E4,-2.9158672E3,-7.1713477E2,2.1266188E4,6.9775405E3,-1.3950798E4,-3.487725E3,5.1202505E3,-1.0652041E4,-2.46525E3,-4.568761E3,4.939416E3,5.802E2,-2.2613196E3,-4.0863586E3,-5.977133E2,-2.3343206E3,-4.4367892E2,6.9135127E3,-7.0085254E3,-1.8813938E3,1.9324586E3,1.1697547E4,-5.9993813E3,4.01176E3,2.265245E3,-6.504225E3,-1.8674557E3,-7.8857534E3,-1.800661E3,-2.4138283E1],"categories":[],"categories_nodes":[],"categories_segments":[],"categories_sizes":[],"default_left":[0,0,0,0,0,0,0,0,0,0,0,0,0,0,0,0,0,0,0,0,0,0,0,0,0,0,0,0,0,0,0,0,0,0,0,0,0,0,0,0,0,0,0,0,0,0,0,0,0,0,0,0,0,0,0,0,0,0,0,0,0,0,0],"id":11,"left_children":[1,3,5,7,9,11,13,15,17,19,21,23,-1,25,27,29,31,33,-1,35,-1,37,39,-1,-1,-1,-1,41,43,45,47,49,51,-1,-1,53,55,-1,-1,57,59,61,-1,-1,-1,-1,-1,-1,-1,-1,-1,-1,-1,-1,-1,-1,-1,-1,-1,-1,-1,-1,-1],"loss_changes":[3.4461897E10,1.0417717E10,1.5112565E10,1.6230088E9,7.618036E9,5.2839465E9,3.9372918E9,1.7774781E9,3.375383E8,3.95081E9,4.120174E9,2.5998316E10,0E0,2.7764224E8,7.5195744E8,3.8128794E8,1.5496558E9,8.8968E6,0E0,1.924159E9,0E0,6.419809E8,2.797199E9,0E0,0E0,0E0,0E0,1.8915674E8,9.830416E7,1.3697818E8,2.830267E8,1.7208788E9,9.131264E6,0E0,0E0,4.47881E9,4.4076145E9,0E0,0E0,3.095079E9,8.7458125E8,4.1691496E7,0E0,0E0,0E0,0E0,0E0,0E0,0E0,0E0,0E0,0E0,0E0,0E0,0E0,0E0,0E0,0E0,0E0,0E0,0E0,0E0,0E0],"parents":[2147483647,0,0,1,1,2,2,3,3,4,4,5,5,6,6,7,7,8,8,9,9,10,10,11,11,13,13,14,14,15,15,16,16,17,17,19,19,21,21,22,22,27,27,28,28,29,29,30,30,31,31,32,32,35,35,36,36,39,39,40,40,41,41],"right_children":[2,4,6,8,10,12,14,16,18,20,22,24,-1,26,28,30,32,34,-1,36,-1,38,40,-1,-1,-1,-1,42,44,46,48,50,52,-1,-1,54,56,-1,-1,58,60,62,-1,-1,-1,-1,-1,-1,-1,-1,-1,-1,-1,-1,-1,-1,-1,-1,-1,-1,-1,-1,-1],"split_conditions":[1.609E6,7.13E5,1E1,5.8242E4,3.6E4,3.061E6,1.3E1,2.28E5,8E4,3.4797E4,3.6198E4,8E0,3.315185E4,4.0023E4,1E0,7.2E4,7E5,7.87E4,-6.8559595E3,1.62E4,1.5675385E4,1E1,1.4E1,2.482359E4,-1.15643125E4,1.7605032E3,9.3780625E3,2.315E6,5.0456E4,9E0,8E0,6.87E5,3.61E4,-2.9158672E3,-7.1713477E2,1.25E4,2E4,-1.3950798E4,-3.487725E3,1.4E6,9.2233E4,1.861E6,-4.568761E3,4.939416E3,5.802E2,-2.2613196E3,-4.0863586E3,-5.977133E2,-2.3343206E3,-4.4367892E2,6.9135127E3,-7.0085254E3,-1.8813938E3,1.9324586E3,1.1697547E4,-5.9993813E3,4.01176E3,2.265245E3,-6.504225E3,-1.8674557E3,-7.8857534E3,-1.800661E3,-2.4138283E1],"split_indices":[0,0,6,1,1,0,6,0,0,1,1,6,0,1,2,0,0,0,0,1,0,6,6,0,0,0,0,0,1,6,6,0,1,0,0,1,1,0,0,0,1,0,0,0,0,0,0,0,0,0,0,0,0,0,0,0,0,0,0,0,0,0,0],"split_type":[0,0,0,0,0,0,0,0,0,0,0,0,0,0,0,0,0,0,0,0,0,0,0,0,0,0,0,0,0,0,0,0,0,0,0,0,0,0,0,0,0,0,0,0,0,0,0,0,0,0,0,0,0,0,0,0,0,0,0,0,0,0,0],"sum_hessian":[2.97E2,2.72E2,2.5E1,1.69E2,1.03E2,8E0,1.7E1,1.58E2,1.1E1,4.2E1,6.1E1,6E0,2E0,1E1,7E0,9.2E1,6.6E1,5E0,6E0,4E1,2E0,3E0,5.8E1,4E0,2E0,1E0,9E0,5E0,2E0,2.8E1,6.4E1,6.3E1,3E0,4E0,1E0,1.7E1,2.3E1,1E0,2E0,4.4E1,1.4E1,4E0,1E0,1E0,1E0,1.1E1,1.7E1,1.1E1,5.3E1,6.1E1,2E0,2E0,1E0,1E1,7E0,4E0,1.9E1,4.1E1,3E0,1.2E1,2E0,1E0,3E0],"tree_param":{"num_deleted":"0","num_feature":"7","num_nodes":"63","size_leaf_vector":"1"}},{"base_weights":[1.275133E3,-2.5094895E3,2.009705E4,-5.2913496E3,1.6883955E3,6.8120938E3,3.811856E4,-3.467672E3,-9.605943E3,1.5594054E4,-1.3476316E3,3.2998234E4,-2.5923071E3,5.857665E4,1.4195145E4,-5.0592925E3,9.843244E1,-8.386047E3,-1.7443924E4,5.1487627E3,2.546726E4,-5.2740874E3,4.7613647E3,1.3199451E4,2.1998562E4,-2.4209547E4,1.8607562E3,2.3933676E4,2.2486062E4,-5.0258223E3,2.2933867E4,-3.777385E3,-7.1508574E3,3.770166E3,-7.921571E3,-1.0586873E4,-5.655877E3,-1.640952E3,-7.0810103E3,1.0103757E4,-6.193742E3,2.9834791E4,1.2549148E4,1.2387424E4,-7.9042314E3,7.004839E3,-1.0054473E4,-6.59775E3,1.1383848E4,-1.0755094E3,-8.9668125E3,7.129725E3,-1.8934514E3,1.8243764E4,-2.0923084E4,1.8175126E3,2.4286008E4,-8.3214746E2,-2.345383E3,-2.5040122E3,-1.284973E3,6.2626044E2,6.3706035E3,-3.6439302E3,2.2180625E3,-1.8655022E3,-4.4311274E3,-7.329076E2,-4.4417485E3,-7.257138E3,1.1510719E3,2.6491875E3,9.680851E3,-1.6991251E3,6.1524097E3,-3.6022783E3,5.536358E3,-3.7114216E3,-3.4203925E2,6.496598E2,9.811197E3,6.7125E0,-2.9757002E3,-6.5093506E3,5.814633E2,1.4860875E3,-1.0901476E4,7.746324E3,2.0310751E3],"categories":[],"categories_nodes":[],"categories_segments":[],"categories_sizes":[],"default_left":[0,0,0,0,0,0,0,0,0,0,0,0,0,0,0,0,0,0,0,0,0,0,0,0,0,0,0,0,0,0,0,0,0,0,0,0,0,0,0,0,0,0,0,0,0,0,0,0,0,0,0,0,0,0,0,0,0,0,0,0,0,0,0,0,0,0,0,0,0,0,0,0,0,0,0,0,0,0,0,0,0,0,0,0,0,0,0,0,0],"id":12,"left_children":[1,3,5,7,9,11,13,15,17,19,21,23,25,27,29,31,33,35,37,39,41,43,45,-1,47,49,51,53,-1,-1,55,57,59,61,63,65,67,-1,-1,-1,69,71,73,75,77,79,-1,81,-1,-1,-1,-1,83,-1,85,-1,87,-1,-1,-1,-1,-1,-1,-1,-1,-1,-1,-1,-1,-1,-1,-1,-1,-1,-1,-1,-1,-1,-1,-1,-1,-1,-1,-1,-1,-1,-1,-1,-1],"loss_changes":[2.127812E10,2.9167383E9,1.171108E10,1.1469535E9,4.242811E9,7.4734904E9,9.446468E9,6.0781786E8,2.74421E8,1.7251886E9,2.0160082E9,6.9632E4,2.2590956E9,4.4468716E9,3.3591002E9,1.713966E8,1.03107437E9,1.8046694E8,2.3966182E8,3.4446648E9,1.3338112E8,2.4669814E9,3.0685368E9,0E0,2.9866132E9,3.6142054E8,1.6897172E9,9.543719E9,0E0,0E0,5.8228736E7,1.7295168E8,5.683853E7,6.609695E8,8.0155194E8,2.919483E8,5.5177766E8,0E0,0E0,0E0,1.5369664E9,2.1873664E7,6.959698E8,1.2576439E9,1.3456338E9,3.9088924E9,0E0,6.6183216E7,0E0,0E0,0E0,0E0,1.4079617E9,0E0,1.3766872E9,0E0,4.028877E7,0E0,0E0,0E0,0E0,0E0,0E0,0E0,0E0,0E0,0E0,0E0,0E0,0E0,0E0,0E0,0E0,0E0,0E0,0E0,0E0,0E0,0E0,0E0,0E0,0E0,0E0,0E0,0E0,0E0,0E0,0E0,0E0],"parents":[2147483647,0,0,1,1,2,2,3,3,4,4,5,5,6,6,7,7,8,8,9,9,10,10,11,11,12,12,13,13,14,14,15,15,16,16,17,17,18,18,19,19,20,20,21,21,22,22,24,24,25,25,26,26,27,27,30,30,31,31,32,32,33,33,34,34,35,35,36,36,40,40,41,41,42,42,43,43,44,44,45,45,47,47,52,52,54,54,56,56],"right_children":[2,4,6,8,10,12,14,16,18,20,22,24,26,28,30,32,34,36,38,40,42,44,46,-1,48,50,52,54,-1,-1,56,58,60,62,64,66,68,-1,-1,-1,70,72,74,76,78,80,-1,82,-1,-1,-1,-1,84,-1,86,-1,88,-1,-1,-1,-1,-1,-1,-1,-1,-1,-1,-1,-1,-1,-1,-1,-1,-1,-1,-1,-1,-1,-1,-1,-1,-1,-1,-1,-1,-1,-1,-1,-1],"split_conditions":[1.346E6,6.1E5,1E0,1.2E1,1.66E4,2.3E4,1E1,3.46E5,1.8E1,1.25E4,1E0,8E0,3E4,2.9223E4,1.468E6,1.9434E4,5.71E5,3.55E4,7.87E4,3.493E3,9E0,6.8E5,7.8E4,1.3199451E4,1.2479E4,2.5E4,9E0,1.5001E4,2.2486062E4,-5.0258223E3,4.1442E4,1.75E5,9.5E4,1E0,4.8E4,2.2517E4,4.89E5,-1.640952E3,-7.0810103E3,1.0103757E4,7E3,6.76E5,1E1,1.9434E4,4.1E4,6.0241E4,-1.0054473E4,1.37E6,1.1383848E4,-1.0755094E3,-8.9668125E3,7.129725E3,1E1,1.8243764E4,1.504E6,1.8175126E3,1.27E5,-8.3214746E2,-2.345383E3,-2.5040122E3,-1.284973E3,6.2626044E2,6.3706035E3,-3.6439302E3,2.2180625E3,-1.8655022E3,-4.4311274E3,-7.329076E2,-4.4417485E3,-7.257138E3,1.1510719E3,2.6491875E3,9.680851E3,-1.6991251E3,6.1524097E3,-3.6022783E3,5.536358E3,-3.7114216E3,-3.4203925E2,6.496598E2,9.811197E3,6.7125E0,-2.9757002E3,-6.5093506E3,5.814633E2,1.4860875E3,-1.0901476E4,7.746324E3,2.0310751E3],"split_indices":[0,0,2,6,1,1,6,0,6,1,2,6,1,1,0,1,0,1,0,1,6,0,1,0,1,1,6,1,0,0,1,0,0,4,1,1,0,0,0,0,1,0,6,1,1,1,0,0,0,0,0,0,6,0,0,0,1,0,0,0,0,0,0,0,0,0,0,0,0,0,0,0,0,0,0,0,0,0,0,0,0,0,0,0,0,0,0,0,0],"split_type":[0,0,0,0,0,0,0,0,0,0,0,0,0,0,0,0,0,0,0,0,0,0,0,0,0,0,0,0,0,0,0,0,0,0,0,0,0,0,0,0,0,0,0,0,0,0,0,0,0,0,0,0,0,0,0,0,0,0,0,0,0,0,0,0,0,0,0,0,0,0,0,0,0,0,0,0,0,0,0,0,0,0,0,0,0,0,0,0,0],"sum_hessian":[2.97E2,2.48E2,4.9E1,1.49E2,9.9E1,2.9E1,2E1,1.06E2,4.3E1,1.7E1,8.2E1,7E0,2.2E1,1E1,1E1,7.3E1,3.3E1,3.9E1,4E0,9E0,8E0,5E1,3.2E1,2E0,5E0,3E0,1.9E1,4E0,6E0,2E0,8E0,4.7E1,2.6E1,2.3E1,1E1,2E1,1.9E1,2E0,2E0,2E0,7E0,5E0,3E0,6E0,4.4E1,3.1E1,1E0,2E0,3E0,1E0,2E0,2E0,1.7E1,2E0,2E0,1E0,7E0,3.9E1,8E0,1.7E1,9E0,2.2E1,1E0,8E0,2E0,1.1E1,9E0,1.5E1,4E0,2E0,5E0,1E0,4E0,1E0,2E0,1E0,5E0,2.6E1,1.8E1,2.7E1,4E0,1E0,1E0,2E0,1.5E1,1E0,1E0,6E0,1E0],"tree_param":{"num_deleted":"0","num_feature":"7","num_nodes":"89","size_leaf_vector":"1"}},{"base_weights":[1.0541248E3,-9.398277E2,2.1950082E4,-3.4926914E3,3.2421592E3,4.3683484E4,9.863933E3,-2.7719172E3,-1.2751889E4,1.0824016E4,-2.0685176E3,2.4701197E4,2.20243E4,1.8274164E4,-2.933129E3,-4.3290005E3,-5.692212E2,-6.481822E3,-5.382496E3,8.751321E3,1.066285E4,-1.1580076E4,2.4035684E3,1.5092738E4,-7.863725E3,2.360339E3,2.1193078E4,4.2944196E2,-3.970669E3,-6.5877036E3,-3.2546714E3,2.7277136E2,-1.3898797E4,-7.8198285E2,-2.2531755E3,8.0830063E3,7.127541E3,-1.9308293E4,5.530652E3,1.6516166E4,-3.592152E3,9.500956E3,1.2422511E4,-2.5558188E3,5.261729E3,-1.5756268E3,-3.0105146E3,1.2964454E1,-1.178179E3,-1.7686183E2,5.4008813E3,-4.8645376E3,-1.0424719E3,-5.805713E3,2.7245776E3,3.3829688E2,-6.842477E3,1.2193613E4,-2.1288096E3,7.281259E3,-2.2365562E2,4.2169688E3,-2.0182172E3,-1.8339282E3,5.2056753E3,-1.1500524E3,3.8324063E2,3.0365532E3,-6.68775E2],"categories":[],"categories_nodes":[],"categories_segments":[],"categories_sizes":[],"default_left":[0,0,0,0,0,0,0,0,0,0,0,0,0,0,0,0,0,0,0,0,0,0,0,0,0,0,0,0,0,0,0,0,0,0,0,0,0,0,0,0,0,0,0,0,0,0,0,0,0,0,0,0,0,0,0,0,0,0,0,0,0,0,0,0,0,0,0,0,0],"id":13,"left_children":[1,3,5,7,9,11,13,15,17,19,21,23,-1,25,27,29,31,33,-1,35,-1,37,39,-1,-1,-1,41,43,-1,45,47,49,51,-1,-1,-1,53,55,57,59,61,-1,63,65,67,-1,-1,-1,-1,-1,-1,-1,-1,-1,-1,-1,-1,-1,-1,-1,-1,-1,-1,-1,-1,-1,-1,-1,-1],"loss_changes":[1.2436963E10,2.9258834E9,6.3986104E9,1.0991972E9,4.2099277E9,3.2658156E9,1.990873E9,5.428709E8,2.741874E8,1.8920392E9,2.6650972E9,1.0445269E10,0E0,1.6738534E8,2.828252E8,2.0423206E8,7.557592E8,8.329568E6,0E0,1.0190943E9,0E0,2.7514952E9,3.6977818E9,0E0,0E0,0E0,3.416791E8,1.1442749E8,0E0,8.082048E7,1.4434829E8,9.8910394E8,4.023456E7,0E0,0E0,0E0,2.1940818E9,1.0270715E9,3.392098E9,1.7582625E9,1.8098844E9,0E0,6.5433024E8,2.9385934E7,1.3178516E8,0E0,0E0,0E0,0E0,0E0,0E0,0E0,0E0,0E0,0E0,0E0,0E0,0E0,0E0,0E0,0E0,0E0,0E0,0E0,0E0,0E0,0E0,0E0,0E0],"parents":[2147483647,0,0,1,1,2,2,3,3,4,4,5,5,6,6,7,7,8,8,9,9,10,10,11,11,13,13,14,14,15,15,16,16,17,17,19,19,21,21,22,22,26,26,27,27,29,29,30,30,31,31,32,32,36,36,37,37,38,38,39,39,40,40,42,42,43,43,44,44],"right_children":[2,4,6,8,10,12,14,16,18,20,22,24,-1,26,28,30,32,34,-1,36,-1,38,40,-1,-1,-1,42,44,-1,46,48,50,52,-1,-1,-1,54,56,58,60,62,-1,64,66,68,-1,-1,-1,-1,-1,-1,-1,-1,-1,-1,-1,-1,-1,-1,-1,-1,-1,-1,-1,-1,-1,-1,-1,-1],"split_conditions":[1.609E6,7.13E5,1E1,5.8242E4,3.6E4,3.061E6,1.3E1,2.28E5,1.17E5,3.4797E4,4.4E4,8E0,2.20243E4,4.5078E4,2.315E6,7.2E4,7E5,1.4E1,-5.382496E3,3.493E3,1.066285E4,9.94E5,4.9998E4,1.5092738E4,-7.863725E3,2.360339E3,5.9E4,1E0,-3.970669E3,3.2322E4,5.2E3,6.87E5,3.61E4,-7.8198285E2,-2.2531755E3,8.0830063E3,7E3,7.5E5,3.8488E4,9.94E5,1E1,9.500956E3,1.864E6,2.283E6,5.0456E4,-1.5756268E3,-3.0105146E3,1.2964454E1,-1.178179E3,-1.7686183E2,5.4008813E3,-4.8645376E3,-1.0424719E3,-5.805713E3,2.7245776E3,3.3829688E2,-6.842477E3,1.2193613E4,-2.1288096E3,7.281259E3,-2.2365562E2,4.2169688E3,-2.0182172E3,-1.8339282E3,5.2056753E3,-1.1500524E3,3.8324063E2,3.0365532E3,-6.68775E2],"split_indices":[0,0,6,1,1,0,6,0,0,1,1,6,0,1,0,0,0,6,0,1,0,0,1,0,0,0,1,2,0,1,1,0,1,0,0,0,1,0,1,0,6,0,0,0,1,0,0,0,0,0,0,0,0,0,0,0,0,0,0,0,0,0,0,0,0,0,0,0,0],"split_type":[0,0,0,0,0,0,0,0,0,0,0,0,0,0,0,0,0,0,0,0,0,0,0,0,0,0,0,0,0,0,0,0,0,0,0,0,0,0,0,0,0,0,0,0,0,0,0,0,0,0,0,0,0,0,0,0,0,0,0,0,0,0,0,0,0,0,0,0,0],"sum_hessian":[2.97E2,2.72E2,2.5E1,1.69E2,1.03E2,8E0,1.7E1,1.58E2,1.1E1,4.2E1,6.1E1,6E0,2E0,1E1,7E0,9.2E1,6.6E1,6E0,5E0,4E1,2E0,1.9E1,4.2E1,4E0,2E0,3E0,7E0,6E0,1E0,2.8E1,6.4E1,6.3E1,3E0,2E0,4E0,2E0,3.8E1,1.3E1,6E0,1.2E1,3E1,2E0,5E0,4E0,2E0,2.2E1,6E0,1.1E1,5.3E1,6.1E1,2E0,2E0,1E0,2E0,3.6E1,2E0,1.1E1,1E0,5E0,8E0,4E0,4E0,2.6E1,1E0,4E0,3E0,1E0,1E0,1E0],"tree_param":{"num_deleted":"0","num_feature":"7","num_nodes":"69","size_leaf_vector":"1"}},{"base_weights":[9.249589E2,8.785439E1,3.1259016E4,-2.1640566E3,5.3071953E3,1.7619451E4,1.23129375E4,-1.7819481E3,-1.44766455E4,2.559396E4,2.3782002E3,6.0285938E3,1.658775E4,-2.149642E3,6.8871816E3,-1.8967637E4,1.196747E3,1.290842E4,1.1470479E4,3.4462017E3,-7.641172E3,5.1892505E2,2.0654875E3,6.5189253E3,9.4556256E2,-1.8502128E3,-6.2688003E3,-7.050813E3,-2.4330063E3,-3.3584064E2,1.54329795E4,-8.9812463E2,9.781454E3,-1.3120326E2,-1.6048035E3,6.38498E3,7.4648126E2,5.1162086E1,-7.3482075E3,7.321186E3,8.070755E2],"categories":[],"categories_nodes":[],"categories_segments":[],"categories_sizes":[],"default_left":[0,0,0,0,0,0,0,0,0,0,0,0,0,0,0,0,0,0,0,0,0,0,0,0,0,0,0,0,0,0,0,0,0,0,0,0,0,0,0,0,0],"id":14,"left_children":[1,3,5,7,9,-1,11,13,15,17,19,21,23,25,-1,27,-1,29,-1,31,-1,-1,-1,-1,-1,33,-1,-1,-1,-1,35,37,39,-1,-1,-1,-1,-1,-1,-1,-1],"loss_changes":[7.5643013E9,3.4317507E9,3.4408095E9,9.339713E8,5.168078E9,0E0,6.118547E7,1.8595456E9,5.732434E8,1.270379E9,2.407694E9,2.81624E6,1.3877242E8,1.06714016E9,0E0,5.559283E7,0E0,2.6517632E8,0E0,2.1004874E9,0E0,0E0,0E0,0E0,0E0,9.6170394E8,0E0,0E0,0E0,0E0,4.014231E8,1.1641183E9,3.1487713E9,0E0,0E0,0E0,0E0,0E0,0E0,0E0,0E0],"parents":[2147483647,0,0,1,1,2,2,3,3,4,4,6,6,7,7,8,8,9,9,10,10,11,11,12,12,13,13,15,15,17,17,19,19,25,25,30,30,31,31,32,32],"right_children":[2,4,6,8,10,-1,12,14,16,18,20,22,24,26,-1,28,-1,30,-1,32,-1,-1,-1,-1,-1,34,-1,-1,-1,-1,36,38,40,-1,-1,-1,-1,-1,-1,-1,-1],"split_conditions":[3.061E6,8.89E5,1E1,8.4E5,8E0,1.7619451E4,9E4,8.1E5,1E0,1.309E6,2.315E6,3.596E6,1.27E5,8.06E5,6.8871816E3,8.5E5,1.196747E3,9.4E5,1.1470479E4,1E0,-7.641172E3,5.1892505E2,2.0654875E3,6.5189253E3,9.4556256E2,1.2E1,-6.2688003E3,-7.050813E3,-2.4330063E3,-3.3584064E2,9.85E5,9.2233E4,4.245E4,-1.3120326E2,-1.6048035E3,6.38498E3,7.4648126E2,5.1162086E1,-7.3482075E3,7.321186E3,8.070755E2],"split_indices":[0,0,6,0,6,0,1,0,4,0,0,0,1,0,0,0,0,0,0,2,0,0,0,0,0,6,0,0,0,0,0,1,1,0,0,0,0,0,0,0,0],"split_type":[0,0,0,0,0,0,0,0,0,0,0,0,0,0,0,0,0,0,0,0,0,0,0,0,0,0,0,0,0,0,0,0,0,0,0,0,0,0,0,0,0],"sum_hessian":[2.97E2,2.9E2,7E0,2.03E2,8.7E1,2E0,5E0,1.98E2,5E0,1E1,7.7E1,3E0,2E0,1.96E2,2E0,4E0,1E0,6E0,4E0,7.5E1,2E0,1E0,2E0,1E0,1E0,1.94E2,2E0,2E0,2E0,1E0,5E0,4.5E1,3E1,1.39E2,5.5E1,3E0,2E0,4.4E1,1E0,9E0,2.1E1],"tree_param":{"num_deleted":"0","num_feature":"7","num_nodes":"41","size_leaf_vector":"1"}},{"base_weights":[7.472029E2,-1.6993235E1,2.275775E4,-1.0514683E3,6.265965E3,3.316285E4,1.0293875E4,-6.711356E2,-1.1119104E4,1.907582E4,2.5824905E3,8.28625E3,1.4095551E4,4.866125E3,1.4099583E4,-9.2031323E2,8.869726E3,-8.364629E3,-5.538468E3,8.1363374E3,7.8600415E3,-1.7556188E4,5.965625E3,1.06693125E4,-6.9405005E3,4.4109378E2,1.6523876E3,5.5410938E3,8.037188E2,-1.7149531E3,2.8666785E3,1.12064375E4,-1.2987843E4,5.2469E3,-1.1787313E3,-3.4983125E3,-7.7286E3,2.9608422E4,2.0988245E3,-3.301193E2,-2.6025476E3,2.8845554E3,-7.7860004E2,7.1211096E2,4.330786E3,-1.2687656E3,-6.101018E3,-1.3305469E3,-2.4369376E2,1.0589319E4,1.8810751E3,5.627525E3,-2.1322659E1],"categories":[],"categories_nodes":[],"categories_segments":[],"categories_sizes":[],"default_left":[0,0,0,0,0,0,0,0,0,0,0,0,0,0,0,0,0,0,0,0,0,0,0,0,0,0,0,0,0,0,0,0,0,0,0,0,0,0,0,0,0,0,0,0,0,0,0,0,0,0,0,0,0],"id":15,"left_children":[1,3,5,7,9,11,13,15,17,19,21,23,-1,25,27,29,-1,-1,31,33,-1,35,37,-1,-1,-1,-1,-1,-1,39,41,43,45,-1,-1,47,-1,49,51,-1,-1,-1,-1,-1,-1,-1,-1,-1,-1,-1,-1,-1,-1],"loss_changes":[5.0128584E9,1.8849623E9,9.555041E8,9.4597126E8,1.8853126E9,1.3299308E9,5.5328256E7,1.8429896E9,6.875091E8,4.882537E8,2.353085E9,3.3941202E9,0E0,6.1976E5,1.002649E8,7.27147E8,0E0,0E0,1.14346E9,6.3297894E8,0E0,4.8665792E8,2.5890944E9,0E0,0E0,0E0,0E0,0E0,0E0,8.41663E8,1.5730921E9,5.1309664E7,3.0018835E8,0E0,0E0,3.946352E6,0E0,3.0978688E8,9.412242E8,0E0,0E0,0E0,0E0,0E0,0E0,0E0,0E0,0E0,0E0,0E0,0E0,0E0,0E0],"parents":[2147483647,0,0,1,1,2,2,3,3,4,4,5,5,6,6,7,7,8,8,9,9,10,10,11,11,13,13,14,14,15,15,18,18,19,19,21,21,22,22,29,29,30,30,31,31,32,32,35,35,37,37,38,38],"right_children":[2,4,6,8,10,12,14,16,18,20,22,24,-1,26,28,30,-1,-1,32,34,-1,36,38,-1,-1,-1,-1,-1,-1,40,42,44,46,-1,-1,48,-1,50,52,-1,-1,-1,-1,-1,-1,-1,-1,-1,-1,-1,-1,-1,-1],"split_conditions":[2.539E6,1.346E6,1E1,7.8E4,2.3E4,3.061E6,9E4,7.7632E4,8.7934E4,1.2479E4,3E4,1.5001E4,1.4095551E4,3.596E6,1.27E5,8.89E5,8.869726E3,-8.364629E3,9.2233E4,8E0,7.8600415E3,2.5E4,9E0,1.06693125E4,-6.9405005E3,4.4109378E2,1.6523876E3,5.5410938E3,8.037188E2,1E0,9.54E5,1.038E6,1.17E5,5.2469E3,-1.1787313E3,1.37E6,-7.7286E3,3.6E4,1.36E6,-3.301193E2,-2.6025476E3,2.8845554E3,-7.7860004E2,7.1211096E2,4.330786E3,-1.2687656E3,-6.101018E3,-1.3305469E3,-2.4369376E2,1.0589319E4,1.8810751E3,5.627525E3,-2.1322659E1],"split_indices":[0,0,6,1,1,0,1,1,1,1,1,1,0,0,1,0,0,0,1,6,0,1,6,0,0,0,0,0,0,2,0,0,0,0,0,0,0,1,0,0,0,0,0,0,0,0,0,0,0,0,0,0,0],"split_type":[0,0,0,0,0,0,0,0,0,0,0,0,0,0,0,0,0,0,0,0,0,0,0,0,0,0,0,0,0,0,0,0,0,0,0,0,0,0,0,0,0,0,0,0,0,0,0,0,0,0,0,0,0],"sum_hessian":[2.97E2,2.88E2,9E0,2.48E2,4E1,4E0,5E0,2.4E2,8E0,8E0,3.2E1,2E0,2E0,3E0,2E0,2.39E2,1E0,1E0,7E0,4E0,4E0,4E0,2.8E1,1E0,1E0,1E0,2E0,1E0,1E0,1.98E2,4.1E1,2E0,5E0,2E0,2E0,2E0,2E0,3E0,2.5E1,1.83E2,1.5E1,1.8E1,2.3E1,1E0,1E0,3E0,2E0,1E0,1E0,2E0,1E0,2E0,2.3E1],"tree_param":{"num_deleted":"0","num_feature":"7","num_nodes":"53","size_leaf_vector":"1"}},{"base_weights":[6.7175824E2,-3.7238123E2,1.1609386E4,1.3549173E2,-7.1689717E3,1.8199426E4,9.684744E2,-5.6150665E2,5.010246E3,-1.2127215E4,-3.2660623E3,1.1005824E4,2.8354459E4,-5.0130938E3,9.148975E3,-1.6558167E2,-1.0001316E4,8.962683E3,-1.0385982E4,-1.4038899E4,1.8818672E2,-3.9298206E3,6.0529224E2,2.3253926E4,6.849196E2,1.1743069E4,1.35525E3,-3.3756094E3,-2.2257002E3,3.5863438E3,4.7099253E3,-4.7312448E2,1.290735E4,-2.5124791E4,-2.091067E3,4.5506416E3,1.5566885E4,3.290125E3,-1.651445E4,-1.5640112E4,-6.647438E2,-4.8126973E3,2.875E1,2.5681501E3,9.0588125E3,-1.5733458E4,1.0398963E4,-5.4035156E3,4.5346875E2,2.4632063E3,-6.92E2,-7.011761E1,-5.1220073E3,-8.1780475E2,1.1316122E4,-1.7438251E3,-9.562332E3,6.945469E3,-3.0470298E3,5.126541E3,-6.292477E2,2.7228082E2,1.1198672E4,1.6876876E3,-2.0713126E2,-6.943775E3,-1.31345E3,-8.9066486E2,-5.274175E3,-1.4126251E2,-1.7957852E3,3.2514932E2,-3.1221182E2,-1.1806313E3,-5.8994253E3,4.707338E3,1.5459423E3,-2.0087126E3,-2.2904063E2,-1.1721563E2,3.2127658E2,-6.86325E2,3.7492502E2],"categories":[],"categories_nodes":[],"categories_segments":[],"categories_sizes":[],"default_left":[0,0,0,0,0,0,0,0,0,0,0,0,0,0,0,0,0,0,0,0,0,0,0,0,0,0,0,0,0,0,0,0,0,0,0,0,0,0,0,0,0,0,0,0,0,0,0,0,0,0,0,0,0,0,0,0,0,0,0,0,0,0,0,0,0,0,0,0,0,0,0,0,0,0,0,0,0,0,0,0,0,0,0],"id":16,"left_children":[1,3,5,7,9,11,13,15,17,19,21,23,25,27,29,31,33,35,37,39,-1,41,-1,43,45,-1,-1,47,-1,49,-1,51,53,55,57,59,61,63,65,67,-1,69,71,-1,-1,73,75,77,79,-1,81,-1,-1,-1,-1,-1,-1,-1,-1,-1,-1,-1,-1,-1,-1,-1,-1,-1,-1,-1,-1,-1,-1,-1,-1,-1,-1,-1,-1,-1,-1,-1,-1],"loss_changes":[3.4076047E9,9.433139E8,1.8055992E9,8.692257E8,3.2807168E8,8.567557E8,5.841191E8,8.3553414E8,2.0403699E9,2.0386714E8,5.00142E7,1.374599E9,1.3662459E9,2.533776E6,1.2589299E8,8.745318E8,1.02413645E9,6.867489E8,6.410297E8,9.78633E7,0E0,3.858259E7,0E0,2.515241E8,1.2800334E9,0E0,0E0,4.90404E7,0E0,8.481994E7,0E0,8.385149E8,2.0423844E9,2.0577011E8,1.6603411E9,1.4528466E9,3.1562765E9,3.1773952E7,3.0107008E8,9.533414E7,0E0,4.302787E7,4.5130385E6,0E0,0E0,6.175507E7,5.7950144E7,1.8871368E7,1.9821678E6,0E0,1.2154758E7,0E0,0E0,0E0,0E0,0E0,0E0,0E0,0E0,0E0,0E0,0E0,0E0,0E0,0E0,0E0,0E0,0E0,0E0,0E0,0E0,0E0,0E0,0E0,0E0,0E0,0E0,0E0,0E0,0E0,0E0,0E0,0E0],"parents":[2147483647,0,0,1,1,2,2,3,3,4,4,5,5,6,6,7,7,8,8,9,9,10,10,11,11,12,12,13,13,14,14,15,15,16,16,17,17,18,18,19,19,21,21,23,23,24,24,27,27,29,29,31,31,32,32,33,33,34,34,35,35,36,36,37,37,38,38,39,39,41,41,42,42,45,45,46,46,47,47,48,48,50,50],"right_children":[2,4,6,8,10,12,14,16,18,20,22,24,26,28,30,32,34,36,38,40,-1,42,-1,44,46,-1,-1,48,-1,50,-1,52,54,56,58,60,62,64,66,68,-1,70,72,-1,-1,74,76,78,80,-1,82,-1,-1,-1,-1,-1,-1,-1,-1,-1,-1,-1,-1,-1,-1,-1,-1,-1,-1,-1,-1,-1,-1,-1,-1,-1,-1,-1,-1,-1,-1,-1,-1],"split_conditions":[1.609E6,1.6E1,1.2E1,1.079E6,1E0,4.5078E4,1E0,9.94E5,1.4E6,2.1E1,2.37E5,8E0,5.9E4,2.315E6,9E4,9.9E5,1.9E4,1E0,2.35E4,1.36E6,1.8818672E2,1E0,6.0529224E2,2.045E6,2.9223E4,1.1743069E4,1.35525E3,1.864E6,-2.2257002E3,5.0456E4,4.7099253E3,7.8E4,1E0,9.95E5,2.82E4,2.3E4,1.346E6,1.489E6,6.4532E4,5.1E4,-6.647438E2,5.8E4,2.7E4,2.5681501E3,9.0588125E3,2.278E6,4.0001E4,1.5E1,2.283E6,2.4632063E3,2.091E6,-7.011761E1,-5.1220073E3,-8.1780475E2,1.1316122E4,-1.7438251E3,-9.562332E3,6.945469E3,-3.0470298E3,5.126541E3,-6.292477E2,2.7228082E2,1.1198672E4,1.6876876E3,-2.0713126E2,-6.943775E3,-1.31345E3,-8.9066486E2,-5.274175E3,-1.4126251E2,-1.7957852E3,3.2514932E2,-3.1221182E2,-1.1806313E3,-5.8994253E3,4.707338E3,1.5459423E3,-2.0087126E3,-2.2904063E2,-1.1721563E2,3.2127658E2,-6.86325E2,3.7492502E2],"split_indices":[0,6,6,0,3,1,2,0,0,6,0,6,1,0,1,0,1,2,1,0,0,5,0,0,1,0,0,0,0,1,0,1,2,0,1,1,0,0,1,1,0,0,1,0,0,0,1,6,0,0,0,0,0,0,0,0,0,0,0,0,0,0,0,0,0,0,0,0,0,0,0,0,0,0,0,0,0,0,0,0,0,0,0],"split_type":[0,0,0,0,0,0,0,0,0,0,0,0,0,0,0,0,0,0,0,0,0,0,0,0,0,0,0,0,0,0,0,0,0,0,0,0,0,0,0,0,0,0,0,0,0,0,0,0,0,0,0,0,0,0,0,0,0,0,0,0,0,0,0,0,0,0,0,0,0,0,0,0,0,0,0,0,0,0,0,0,0,0,0],"sum_hessian":[2.97E2,2.72E2,2.5E1,2.54E2,1.8E1,1.5E1,1E1,2.23E2,3.1E1,7E0,1.1E1,1E1,5E0,6E0,4E0,2.15E2,8E0,2.5E1,6E0,6E0,1E0,1E1,1E0,4E0,6E0,3E0,2E0,5E0,1E0,3E0,1E0,2.11E2,4E0,2E0,6E0,1.6E1,9E0,2E0,4E0,5E0,1E0,8E0,2E0,2E0,2E0,2E0,4E0,3E0,2E0,1E0,2E0,2.09E2,2E0,3E0,1E0,1E0,1E0,1E0,5E0,5E0,1.1E1,6E0,3E0,1E0,1E0,2E0,2E0,1E0,4E0,2E0,6E0,1E0,1E0,1E0,1E0,1E0,3E0,2E0,1E0,1E0,1E0,1E0,1E0],"tree_param":{"num_deleted":"0","num_feature":"7","num_nodes":"83","size_leaf_vector":"1"}},{"base_weights":[5.5624365E2,3.1641369E1,1.5661625E4,-2.1302915E3,1.5575255E3,2.2857E4,7.0552085E3,-1.8110719E3,-6.3729805E3,7.4109536E3,2.5028404E2,5.99025E3,9.631426E3,9.3318756E2,9.962917E3,2.0629275E3,-2.2072168E3,-1.1263013E4,1.6594236E3,2.4710078E3,1.5026617E4,-1.763016E4,1.1824694E3,7.710113E3,-5.0145E3,4.0034438E3,4.7986877E2,4.0391047E3,-2.6548267E3,-5.305475E3,-1.8541339E3,-4.13555E3,-7.0350493E3,7.9757427E3,-6.7830625E3,1.8386334E4,8.602511E3,-4.3282085E3,-6.6255903E3,7.921061E3,-3.5977856E2,2.2038901E3,1.8297736E2,-1.7117603E3,-2.5529181E2,-4.2815472E2,-1.48378E3,2.0864064E2,-1.6551516E3,4.078445E3,-2.5369376E2,1.9642876E3,-3.695369E3,5.969257E3,1.3978828E3,-2.6998752E2,4.0736204E3,-4.1460938E3,2.1984001E3,1.148446E3,7.058119E3,-1.3188417E3,6.889006E2],"categories":[],"categories_nodes":[],"categories_segments":[],"categories_sizes":[],"default_left":[0,0,0,0,0,0,0,0,0,0,0,0,0,0,0,0,0,0,0,0,0,0,0,0,0,0,0,0,0,0,0,0,0,0,0,0,0,0,0,0,0,0,0,0,0,0,0,0,0,0,0,0,0,0,0,0,0,0,0,0,0,0,0],"id":17,"left_children":[1,3,5,7,9,11,13,15,17,19,21,23,-1,-1,25,27,29,31,-1,33,35,37,39,-1,-1,-1,-1,41,-1,43,45,47,-1,49,51,53,55,57,-1,59,61,-1,-1,-1,-1,-1,-1,-1,-1,-1,-1,-1,-1,-1,-1,-1,-1,-1,-1,-1,-1,-1,-1],"loss_changes":[2.360951E9,9.566882E8,4.5800294E8,1.5098003E8,1.2989586E9,5.8758195E8,3.7827296E7,1.7797046E8,5.2800333E8,1.1291192E9,2.3543514E9,1.7721517E9,0E0,0E0,6.350611E7,2.729558E8,1.0283898E8,4.2420147E8,0E0,1.0729241E9,1.0082944E8,3.192448E8,1.3954554E9,0E0,0E0,0E0,0E0,1.0892898E8,0E0,1.2979968E7,1.1702579E8,3.7210224E7,0E0,6.558808E8,6.70918E8,5.249101E7,2.9593878E8,4.332011E8,0E0,1.5067831E9,1.1894085E9,0E0,0E0,0E0,0E0,0E0,0E0,0E0,0E0,0E0,0E0,0E0,0E0,0E0,0E0,0E0,0E0,0E0,0E0,0E0,0E0,0E0,0E0],"parents":[2147483647,0,0,1,1,2,2,3,3,4,4,5,5,6,6,7,7,8,8,9,9,10,10,11,11,14,14,15,15,16,16,17,17,19,19,20,20,21,21,22,22,27,27,29,29,30,30,31,31,33,33,34,34,35,35,36,36,37,37,39,39,40,40],"right_children":[2,4,6,8,10,12,14,16,18,20,22,24,-1,-1,26,28,30,32,-1,34,36,38,40,-1,-1,-1,-1,42,-1,44,46,48,-1,50,52,54,56,58,-1,60,62,-1,-1,-1,-1,-1,-1,-1,-1,-1,-1,-1,-1,-1,-1,-1,-1,-1,-1,-1,-1,-1,-1],"split_conditions":[2.539E6,4.6E5,1E1,4.43E5,1.66E4,3.061E6,9E4,1E0,2.8569E4,1.25E4,2E4,1.5001E4,9.631426E3,9.3318756E2,1.27E5,5.7E4,5.2E4,1E1,1.6594236E3,9.01E3,1E0,1.8828E4,3.1604E4,7.710113E3,-5.0145E3,4.0034438E3,4.7986877E2,2.587E4,-2.6548267E3,5.0024E4,1.78E5,1.2E4,-7.0350493E3,8.12E5,8E0,1.65E4,9.95E5,7.7E5,-6.6255903E3,3E4,4.4E4,2.2038901E3,1.8297736E2,-1.7117603E3,-2.5529181E2,-4.2815472E2,-1.48378E3,2.0864064E2,-1.6551516E3,4.078445E3,-2.5369376E2,1.9642876E3,-3.695369E3,5.969257E3,1.3978828E3,-2.6998752E2,4.0736204E3,-4.1460938E3,2.1984001E3,1.148446E3,7.058119E3,-1.3188417E3,6.889006E2],"split_indices":[0,0,6,0,1,0,1,3,1,1,1,1,0,0,1,1,0,6,0,1,4,1,1,0,0,0,0,1,0,1,0,1,0,0,6,1,0,0,0,1,1,0,0,0,0,0,0,0,0,0,0,0,0,0,0,0,0,0,0,0,0,0,0],"split_type":[0,0,0,0,0,0,0,0,0,0,0,0,0,0,0,0,0,0,0,0,0,0,0,0,0,0,0,0,0,0,0,0,0,0,0,0,0,0,0,0,0,0,0,0,0,0,0,0,0,0,0,0,0,0,0,0,0,0,0,0,0,0,0],"sum_hessian":[2.97E2,2.88E2,9E0,1.19E2,1.69E2,4E0,5E0,1.12E2,7E0,3E1,1.39E2,2E0,2E0,3E0,2E0,1E1,1.02E2,5E0,2E0,1.9E1,1.1E1,6E0,1.33E2,1E0,1E0,1E0,1E0,9E0,1E0,9E0,9.3E1,4E0,1E0,1.2E1,7E0,6E0,5E0,2E0,4E0,2.4E1,1.09E2,4E0,5E0,8E0,1E0,8.3E1,1E1,1E0,3E0,7E0,5E0,2E0,5E0,5E0,1E0,2E0,3E0,1E0,1E0,2E1,4E0,4.3E1,6.6E1],"tree_param":{"num_deleted":"0","num_feature":"7","num_nodes":"63","size_leaf_vector":"1"}},{"base_weights":[4.5327185E2,2.6644924E1,1.2737463E4,4.5536276E2,-5.4662954E3,1.84653E4,5.841354E3,-3.4348178E2,4.3354893E3,-3.1719036E3,-1.0673624E4,8.0796875E3,9.001163E3,2.4106875E3,8.468458E3,-1.6082492E2,-1.3745595E4,6.5789653E3,-2.5692734E3,-5.698422E3,-1.0861504E3,-4.06834E3,-9.797213E2,6.553613E3,-3.7906667E3,1.7870625E2,2.817125E3,3.402919E3,4.078875E2,-3.861816E2,7.44645E3,2.5944815E2,-6.444966E3,4.283763E3,5.848028E3,-1.23471875E4,3.863082E3,-2.584315E3,-1.3578555E3,-2.0728772E3,5.721514E2,-4.262325E3,2.5565251E3,2.612625E2,1.0064438E3,-2.4271358E1,-2.270449E3,3.240975E3,4.7364845E1,-5.5171064E3,-6.5648755E2,5.235122E3,-1.0723281E3,5.6622658E1,-5.808907E2,-8.75632E2,9.296211E1],"categories":[],"categories_nodes":[],"categories_segments":[],"categories_sizes":[],"default_left":[0,0,0,0,0,0,0,0,0,0,0,0,0,0,0,0,0,0,0,0,0,0,0,0,0,0,0,0,0,0,0,0,0,0,0,0,0,0,0,0,0,0,0,0,0,0,0,0,0,0,0,0,0,0,0,0,0],"id":18,"left_children":[1,3,5,7,9,11,13,15,17,19,21,23,-1,25,27,29,31,33,35,37,39,-1,-1,-1,41,-1,43,-1,-1,45,-1,-1,-1,47,-1,49,51,-1,53,55,-1,-1,-1,-1,-1,-1,-1,-1,-1,-1,-1,-1,-1,-1,-1,-1,-1],"loss_changes":[1.5614089E9,6.8306144E8,2.871355E8,8.3528634E8,2.17045E8,3.5675392E8,3.3661504E7,5.461386E8,7.294739E8,7.812576E7,8.405491E7,7.364229E8,0E0,1.27261E6,4.588293E7,1.2594309E9,3.577291E8,9.5394E8,8.024384E8,7.690136E7,3.3489238E7,0E0,0E0,0E0,5.058533E8,0E0,2.17802E5,0E0,0E0,4.8392893E8,0E0,0E0,0E0,8.321517E8,0E0,2.6671603E8,8.70822E8,0E0,3.943958E6,1.7028924E7,0E0,0E0,0E0,0E0,0E0,0E0,0E0,0E0,0E0,0E0,0E0,0E0,0E0,0E0,0E0,0E0,0E0],"parents":[2147483647,0,0,1,1,2,2,3,3,4,4,5,5,6,6,7,7,8,8,9,9,10,10,11,11,13,13,14,14,15,15,16,16,17,17,18,18,19,19,20,20,24,24,26,26,29,29,33,33,35,35,36,36,38,38,39,39],"right_children":[2,4,6,8,10,12,14,16,18,20,22,24,-1,26,28,30,32,34,36,38,40,-1,-1,-1,42,-1,44,-1,-1,46,-1,-1,-1,48,-1,50,52,-1,54,56,-1,-1,-1,-1,-1,-1,-1,-1,-1,-1,-1,-1,-1,-1,-1,-1,-1],"split_conditions":[2.539E6,1.6E1,1E1,1.079E6,1.04707E5,3.596E6,9E4,7.8E4,5.9E4,1E0,1.97176E5,1.5001E4,9.001163E3,3.596E6,1.27E5,7.7632E4,1.17E5,5.0024E4,6.4532E4,7.7E5,1.9E1,-4.06834E3,-9.797213E2,6.553613E3,3.061E6,1.7870625E2,4.1442E4,3.402919E3,4.078875E2,9.94E5,7.44645E3,2.5944815E2,-6.444966E3,2.3E4,5.848028E3,1.468E6,1.37E6,-2.584315E3,8.01E5,1E0,5.721514E2,-4.262325E3,2.5565251E3,2.612625E2,1.0064438E3,-2.4271358E1,-2.270449E3,3.240975E3,4.7364845E1,-5.5171064E3,-6.5648755E2,5.235122E3,-1.0723281E3,5.6622658E1,-5.808907E2,-8.75632E2,9.296211E1],"split_indices":[0,6,6,0,1,0,1,1,1,3,1,1,0,0,1,1,0,1,1,0,6,0,0,0,0,0,1,0,0,0,0,0,0,1,0,0,0,0,0,5,0,0,0,0,0,0,0,0,0,0,0,0,0,0,0,0,0],"split_type":[0,0,0,0,0,0,0,0,0,0,0,0,0,0,0,0,0,0,0,0,0,0,0,0,0,0,0,0,0,0,0,0,0,0,0,0,0,0,0,0,0,0,0,0,0,0,0,0,0,0,0,0,0,0,0,0,0],"sum_hessian":[2.97E2,2.88E2,9E0,2.68E2,2E1,4E0,5E0,2.23E2,4.5E1,1.5E1,5E0,3E0,1E0,3E0,2E0,2.21E2,2E0,3.4E1,1.1E1,6E0,9E0,3E0,2E0,1E0,2E0,1E0,2E0,1E0,1E0,2.2E2,1E0,1E0,1E0,3E1,4E0,4E0,7E0,3E0,3E0,7E0,2E0,1E0,1E0,1E0,1E0,2.12E2,8E0,1.1E1,1.9E1,2E0,2E0,2E0,5E0,1E0,2E0,5E0,2E0],"tree_param":{"num_deleted":"0","num_feature":"7","num_nodes":"57","size_leaf_vector":"1"}},{"base_weights":[3.7376733E2,-5.9203107E2,4.296104E3,3.7463963E1,-4.4071323E3,-3.3474043E3,7.2180464E3,-3.78706E2,6.37583E3,-9.704791E3,-2.6742285E3,2.74488E3,-1.8517863E4,1.2709886E4,8.594583E2,-1.00687726E3,4.6085063E3,-2.066294E3,-4.1623896E3,1.30756E2,-5.705039E3,-6.561328E3,1.4695677E4,-6.554269E3,-7.7985944E2,8.954125E3,1.0429075E4,-5.478225E3,2.7285063E3,-2.4247682E2,-4.7224253E3,-2.721505E3,8.699279E3,-6.047878E2,-9.676219E2,-1.8582749E3,4.4804727E3,-3.5772925E3,-9.598146E3,-8.494755E3,1.0458984E3,1.8692781E4,-7.934766E2,1.3262069E4,-6.394269E3,-1.1039258E4,5.80748E3,-3.029579E2,4.739272E3,-2.3150532E3,2.7121375E3,-1.2760393E3,-3.739844E2,3.201458E3,1.8231563E2,-2.31017E2,-4.11375E1,-2.24417E1,-1.4881934E3,2.3670148E2,2.8869517E3,-1.6807814E3,-1.2943782E2,-3.4117383E2,-3.6118093E3,-3.3423284E3,-1.117418E3,2.6609534E2,6.8767456E3,1.6471426E3,5.9122373E3,1.4747468E3,-8.835676E3,5.485549E3,-2.745953E2],"categories":[],"categories_nodes":[],"categories_segments":[],"categories_sizes":[],"default_left":[0,0,0,0,0,0,0,0,0,0,0,0,0,0,0,0,0,0,0,0,0,0,0,0,0,0,0,0,0,0,0,0,0,0,0,0,0,0,0,0,0,0,0,0,0,0,0,0,0,0,0,0,0,0,0,0,0,0,0,0,0,0,0,0,0,0,0,0,0,0,0,0,0,0,0],"id":19,"left_children":[1,3,5,7,9,11,13,15,-1,17,19,21,23,25,27,29,31,33,-1,35,37,39,41,-1,-1,43,-1,-1,45,47,49,51,53,55,-1,57,59,61,63,65,-1,67,-1,69,-1,71,73,-1,-1,-1,-1,-1,-1,-1,-1,-1,-1,-1,-1,-1,-1,-1,-1,-1,-1,-1,-1,-1,-1,-1,-1,-1,-1,-1,-1],"loss_changes":[1.131423E9,5.765461E8,1.3418612E9,1.8356869E9,2.861785E8,1.622016E9,1.4906511E9,6.437362E8,0E0,2.2614138E8,2.3028315E8,1.542239E9,2.0822298E8,1.5937766E9,8.002928E8,5.1576525E8,7.1333965E8,4.825512E6,0E0,1.3810174E8,7.335072E7,1.8502669E8,4.6531392E8,0E0,0E0,3.0209528E9,0E0,0E0,9.119219E8,1.8868996E9,1.3473306E9,1.503282E7,2.3289293E8,1.26276375E5,0E0,6.0491704E7,8.7327816E7,6.1295656E7,6.89279E7,4.6864256E7,0E0,3.5623437E8,0E0,8.435241E8,0E0,1.3199052E9,1.4427804E9,0E0,0E0,0E0,0E0,0E0,0E0,0E0,0E0,0E0,0E0,0E0,0E0,0E0,0E0,0E0,0E0,0E0,0E0,0E0,0E0,0E0,0E0,0E0,0E0,0E0,0E0,0E0,0E0],"parents":[2147483647,0,0,1,1,2,2,3,3,4,4,5,5,6,6,7,7,9,9,10,10,11,11,12,12,13,13,14,14,15,15,16,16,17,17,19,19,20,20,21,21,22,22,25,25,28,28,29,29,30,30,31,31,32,32,33,33,35,35,36,36,37,37,38,38,39,39,41,41,43,43,45,45,46,46],"right_children":[2,4,6,8,10,12,14,16,-1,18,20,22,24,26,28,30,32,34,-1,36,38,40,42,-1,-1,44,-1,-1,46,48,50,52,54,56,-1,58,60,62,64,66,-1,68,-1,70,-1,72,74,-1,-1,-1,-1,-1,-1,-1,-1,-1,-1,-1,-1,-1,-1,-1,-1,-1,-1,-1,-1,-1,-1,-1,-1,-1,-1,-1,-1],"split_conditions":[1E0,5.6701E4,8.7E5,5.5138E4,1.2E1,7.85E5,1E1,1E0,6.37583E3,4.99E5,1.6E1,6.8E5,8.1E5,6.0241E4,9.29E5,8.4E5,6.4E4,4.43E5,-4.1623896E3,7.7632E4,1.35E5,1E0,7.7E5,-6.554269E3,-7.7985944E2,4.8E4,1.0429075E4,-5.478225E3,4.3535E4,7.71E5,4.0534E4,2.071E3,1.1E1,8.7E4,-9.676219E2,7.1E4,1.5E1,7.2E5,5.4E4,1.1E1,1.0458984E3,3.9485E4,-7.934766E2,3.4E4,-6.394269E3,4.1442E4,9.94E5,-3.029579E2,4.739272E3,-2.3150532E3,2.7121375E3,-1.2760393E3,-3.739844E2,3.201458E3,1.8231563E2,-2.31017E2,-4.11375E1,-2.24417E1,-1.4881934E3,2.3670148E2,2.8869517E3,-1.6807814E3,-1.2943782E2,-3.4117383E2,-3.6118093E3,-3.3423284E3,-1.117418E3,2.6609534E2,6.8767456E3,1.6471426E3,5.9122373E3,1.4747468E3,-8.835676E3,5.485549E3,-2.745953E2],"split_indices":[2,1,0,1,6,0,6,4,0,0,6,0,0,1,0,0,0,0,0,1,1,5,0,0,0,1,0,0,1,0,1,1,6,0,0,1,6,0,0,6,0,1,0,1,0,1,0,0,0,0,0,0,0,0,0,0,0,0,0,0,0,0,0,0,0,0,0,0,0,0,0,0,0,0,0],"split_type":[0,0,0,0,0,0,0,0,0,0,0,0,0,0,0,0,0,0,0,0,0,0,0,0,0,0,0,0,0,0,0,0,0,0,0,0,0,0,0,0,0,0,0,0,0,0,0,0,0,0,0,0,0,0,0,0,0,0,0,0,0,0,0,0,0,0,0,0,0,0,0,0,0,0,0],"sum_hessian":[2.97E2,2.39E2,5.8E1,2.06E2,3.3E1,1.6E1,4.2E1,2.03E2,3E0,7E0,2.6E1,1.2E1,4E0,2.2E1,2E1,1.81E2,2.2E1,3E0,4E0,1.4E1,1.2E1,7E0,5E0,3E0,1E0,2E1,2E0,1E0,1.9E1,1.51E2,3E1,8E0,1.4E1,2E0,1E0,1E1,4E0,9E0,3E0,6E0,1E0,4E0,1E0,1.8E1,2E0,3E0,1.6E1,1.45E2,6E0,2.5E1,5E0,3E0,5E0,1.1E1,3E0,1E0,1E0,7E0,3E0,3E0,1E0,5E0,4E0,1E0,2E0,3E0,3E0,1E0,3E0,9E0,9E0,2E0,1E0,5E0,1.1E1],"tree_param":{"num_deleted":"0","num_feature":"7","num_nodes":"75","size_leaf_vector":"1"}},{"base_weights":[2.715646E2,-7.4136496E0,1.0385453E4,3.5408284E3,-5.0635623E2,1.7889666E4,4.9024375E3,-2.776377E2,1.0317933E4,-4.071635E2,-3.8700752E3,1.2862125E3,6.7641377E3,1.8176875E3,7.3812915E3,1.322013E3,-6.6207124E3,1.3578835E4,-1.5234064E3,1.4924303E3,-8.548588E2,8.625E-1,2.4216667E3,2.9336814E3,3.8790002E2,-1.4765938E3,2.942539E3,-4.0117876E3,2.3381042E3,5.6240723E3,9.297445E3,-4.127624E2,1.0005815E4,8.401844E3,-1.0786453E3,1.9308751E2,8.9666254E2,-5.65566E2,2.0756837E2,4.221693E2,1.5352759E3,1.511747E3,-4.596E2,1.3113281E3,4.8153003E3,2.4352168E2,-7.4089224E3,3.2763956E2,4.284191E3,-2.2162521E2,4.4225474E3,-7.3759015E2,2.2580632E2],"categories":[],"categories_nodes":[],"categories_segments":[],"categories_sizes":[],"default_left":[0,0,0,0,0,0,0,0,0,0,0,0,0,0,0,0,0,0,0,0,0,0,0,0,0,0,0,0,0,0,0,0,0,0,0,0,0,0,0,0,0,0,0,0,0,0,0,0,0,0,0,0,0],"id":20,"left_children":[1,3,5,7,9,11,13,15,17,19,-1,-1,-1,21,23,25,27,29,-1,31,33,-1,35,-1,-1,37,39,-1,41,-1,43,45,47,49,51,-1,-1,-1,-1,-1,-1,-1,-1,-1,-1,-1,-1,-1,-1,-1,-1,-1,-1],"loss_changes":[8.409004E8,5.169703E8,2.4146272E8,9.344777E8,3.094698E8,9.338835E7,3.2462992E7,2.5227357E8,7.21615E8,2.1813782E8,0E0,0E0,0E0,4.377473E6,3.1148528E7,9.504924E7,3.337123E8,6.909325E7,0E0,7.9889235E8,4.3786822E8,0E0,1.101846E6,0E0,0E0,8.393182E6,3.621015E7,0E0,3.908005E7,0E0,1.9600262E8,1.2391965E9,3.273433E8,3.0064643E8,5.148759E8,0E0,0E0,0E0,0E0,0E0,0E0,0E0,0E0,0E0,0E0,0E0,0E0,0E0,0E0,0E0,0E0,0E0,0E0],"parents":[2147483647,0,0,1,1,2,2,3,3,4,4,5,5,6,6,7,7,8,8,9,9,13,13,14,14,15,15,16,16,17,17,19,19,20,20,22,22,25,25,26,26,28,28,30,30,31,31,32,32,33,33,34,34],"right_children":[2,4,6,8,10,12,14,16,18,20,-1,-1,-1,22,24,26,28,30,-1,32,34,-1,36,-1,-1,38,40,-1,42,-1,44,46,48,50,52,-1,-1,-1,-1,-1,-1,-1,-1,-1,-1,-1,-1,-1,-1,-1,-1,-1,-1],"split_conditions":[3.061E6,8E0,1E1,7.15E5,2.539E6,3.596E6,9E4,5.71E5,1.6E4,9E0,-3.8700752E3,1.2862125E3,6.7641377E3,4.1442E4,1.27E5,8.7E4,5.87E5,9.54E5,-1.5234064E3,3E4,5.4E3,8.625E-1,3.596E6,2.9336814E3,3.8790002E2,1.1849E4,4.3E3,-4.0117876E3,6.76E5,5.6240723E3,2.045E6,2.9E4,1.47E5,7.5E4,4.4E4,1.9308751E2,8.9666254E2,-5.65566E2,2.0756837E2,4.221693E2,1.5352759E3,1.511747E3,-4.596E2,1.3113281E3,4.8153003E3,2.4352168E2,-7.4089224E3,3.2763956E2,4.284191E3,-2.2162521E2,4.4225474E3,-7.3759015E2,2.2580632E2],"split_indices":[0,6,6,0,0,0,1,0,1,6,0,0,0,1,1,0,0,0,0,1,1,0,0,0,0,1,1,0,0,0,0,1,0,0,1,0,0,0,0,0,0,0,0,0,0,0,0,0,0,0,0,0,0],"split_type":[0,0,0,0,0,0,0,0,0,0,0,0,0,0,0,0,0,0,0,0,0,0,0,0,0,0,0,0,0,0,0,0,0,0,0,0,0,0,0,0,0,0,0,0,0,0,0,0,0,0,0,0,0],"sum_hessian":[2.97E2,2.9E2,7E0,3.5E1,2.55E2,2E0,5E0,2.3E1,1.2E1,2.54E2,1E0,1E0,1E0,3E0,2E0,1.9E1,4E0,1E1,2E0,4.8E1,2.06E2,1E0,2E0,1E0,1E0,7E0,1.2E1,2E0,2E0,3E0,7E0,4E1,8E0,4E0,2.02E2,1E0,1E0,6E0,1E0,8E0,4E0,1E0,1E0,5E0,2E0,3.9E1,1E0,3E0,5E0,2E0,2E0,1.15E2,8.7E1],"tree_param":{"num_deleted":"0","num_feature":"7","num_nodes":"53","size_leaf_vector":"1"}},{"base_weights":[2.5249399E2,-1.4263554E1,7.9365376E3,4.2577637E2,-2.7641565E3,4.601213E3,5.4100693E3,9.93249E1,6.369597E3,1.1890825E4,-4.7227886E3,-3.2895564E3,8.827625E3,3.63026E2,-5.949363E3,1.2840325E4,7.2035205E2,-2.3526875E3,2.7660334E4,-9.5570625E3,-2.2134253E3,1.5206167E4,4.1670835E3,-4.1538414E1,7.088215E3,-9.721903E2,-1.3172074E4,3.728127E2,4.473392E3,-2.4421035E3,2.0415438E3,1.06501875E4,1.7969625E3,-1.275642E4,-2.5266792E3,-1.189999E3,-9.321884E3,1.093275E3,5.7495E3,1.5450312E3,6.274125E3,5.8661095E1,-3.039793E3,8.662304E3,8.599526E2,6.949217E2,-3.105565E3,-4.6118204E2,-4.961375E3,2.820554E2,-1.841336E3,-7.3347485E2,-4.7358306E3,-1.22150246E2,-1.6507091E3,-9.782335E2,1.961212E2,-6.699651E2,-3.524883E3,7.3125005E-1,6.17525E2,2.4936377E3,3.2971875E2],"categories":[],"categories_nodes":[],"categories_segments":[],"categories_sizes":[],"default_left":[0,0,0,0,0,0,0,0,0,0,0,0,0,0,0,0,0,0,0,0,0,0,0,0,0,0,0,0,0,0,0,0,0,0,0,0,0,0,0,0,0,0,0,0,0,0,0,0,0,0,0,0,0,0,0,0,0,0,0,0,0,0,0],"id":21,"left_children":[1,3,5,7,9,-1,11,13,15,17,19,-1,21,23,25,27,29,-1,31,33,35,37,39,41,43,45,47,-1,-1,49,-1,-1,-1,51,53,55,57,-1,-1,59,61,-1,-1,-1,-1,-1,-1,-1,-1,-1,-1,-1,-1,-1,-1,-1,-1,-1,-1,-1,-1,-1,-1],"loss_changes":[6.109466E8,3.5088506E8,1.0400352E8,4.8445962E8,1.2043064E9,0E0,6.004667E8,3.8178064E8,4.6596186E8,1.7728282E9,4.155604E8,0E0,1.7445434E8,6.233512E8,3.4668102E8,1.2558029E8,1.7056198E8,0E0,2.9706394E8,2.3768102E8,1.7078154E8,6.747302E7,2.345492E7,5.2112176E8,1.1129018E9,2.399013E8,1.3122035E8,0E0,0E0,8.076984E7,0E0,0E0,0E0,2.113289E8,2.9294604E7,8.994502E7,2.5388624E7,0E0,0E0,3.162763E6,2.2504792E7,0E0,0E0,0E0,0E0,0E0,0E0,0E0,0E0,0E0,0E0,0E0,0E0,0E0,0E0,0E0,0E0,0E0,0E0,0E0,0E0,0E0,0E0],"parents":[2147483647,0,0,1,1,2,2,3,3,4,4,6,6,7,7,8,8,9,9,10,10,12,12,13,13,14,14,15,15,16,16,18,18,19,19,20,20,21,21,22,22,23,23,24,24,25,25,26,26,29,29,33,33,34,34,35,35,36,36,39,39,40,40],"right_children":[2,4,6,8,10,-1,12,14,16,18,20,-1,22,24,26,28,30,-1,32,34,36,38,40,42,44,46,48,-1,-1,50,-1,-1,-1,52,54,56,58,-1,-1,60,62,-1,-1,-1,-1,-1,-1,-1,-1,-1,-1,-1,-1,-1,-1,-1,-1,-1,-1,-1,-1,-1,-1],"split_conditions":[2.539E6,5.9E4,1.5001E4,5.4242E4,1E1,4.601213E3,3.061E6,5.0456E4,5.6701E4,6.0241E4,6.8E4,-3.2895564E3,1E1,4.8E4,6.05E5,5.8E4,1E0,-2.3526875E3,9.54E5,1.5E1,2E1,3.596E6,9E4,4.578E4,4.8767E4,5.42E4,5.1E4,3.728127E2,4.473392E3,4.6E5,2.0415438E3,1.06501875E4,1.7969625E3,4.99E5,6.3E4,7.7632E4,2.37E5,1.093275E3,5.7495E3,4.1442E4,1.27E5,5.8661095E1,-3.039793E3,8.662304E3,8.599526E2,6.949217E2,-3.105565E3,-4.6118204E2,-4.961375E3,2.820554E2,-1.841336E3,-7.3347485E2,-4.7358306E3,-1.22150246E2,-1.6507091E3,-9.782335E2,1.961212E2,-6.699651E2,-3.524883E3,7.3125005E-1,6.17525E2,2.4936377E3,3.2971875E2],"split_indices":[0,1,1,1,6,0,0,1,1,1,1,0,6,1,0,0,2,0,0,6,6,0,1,1,1,1,1,0,0,0,0,0,0,0,1,1,0,0,0,1,1,0,0,0,0,0,0,0,0,0,0,0,0,0,0,0,0,0,0,0,0,0,0],"split_type":[0,0,0,0,0,0,0,0,0,0,0,0,0,0,0,0,0,0,0,0,0,0,0,0,0,0,0,0,0,0,0,0,0,0,0,0,0,0,0,0,0,0,0,0,0,0,0,0,0,0,0,0,0,0,0,0,0,0,0,0,0,0,0],"sum_hessian":[2.97E2,2.88E2,9E0,2.49E2,3.9E1,1E0,8E0,2.37E2,1.2E1,4E0,3.5E1,1E0,7E0,2.28E2,9E0,5E0,7E0,2E0,2E0,1.1E1,2.4E1,2E0,5E0,2.16E2,1.2E1,6E0,3E0,1E0,4E0,5E0,2E0,1E0,1E0,7E0,4E0,2.2E1,2E0,1E0,1E0,3E0,2E0,2.12E2,4E0,1E0,1.1E1,5E0,1E0,1E0,2E0,3E0,2E0,2E0,5E0,3E0,1E0,1E1,1.2E1,1E0,1E0,1E0,2E0,1E0,1E0],"tree_param":{"num_deleted":"0","num_feature":"7","num_nodes":"63","size_leaf_vector":"1"}},{"base_weights":[2.220718E2,-3.3714688E0,6.715175E3,1.9167725E2,-4.15915E3,3.9110251E3,4.56425E3,6.0550346E1,1.214775E4,-4.719783E3,-1.8836443E3,-2.7961313E3,7.4648906E3,-2.3213177E2,2.9966567E3,5.2346816E3,2.3180626E2,2.3906204E3,-3.5037454E3,1.292525E4,3.4905625E3,1.3470723E3,-8.625238E2,3.5011093E2,9.752045E3,-1.6411559E3,-7.923599E3,9.2928754E2,4.887075E3,1.2360938E3,5.333E3,-1.9685045E2,1.2520444E3,4.5423237E3,-3.1095493E2,-9.156406E2,2.4691E3,5.7284766E3,-6.0865314E2,-4.6514824E1,-8.397094E2,-5.6947034E2,-2.9961494E3,6.1875004E-1,4.9402502E2,2.1195938E3,2.8025626E2],"categories":[],"categories_nodes":[],"categories_segments":[],"categories_sizes":[],"default_left":[0,0,0,0,0,0,0,0,0,0,0,0,0,0,0,0,0,0,0,0,0,0,0,0,0,0,0,0,0,0,0,0,0,0,0,0,0,0,0,0,0,0,0,0,0,0,0],"id":22,"left_children":[1,3,5,7,9,-1,11,13,15,-1,17,-1,19,21,23,-1,-1,-1,25,27,29,31,33,35,37,39,41,-1,-1,43,45,-1,-1,-1,-1,-1,-1,-1,-1,-1,-1,-1,-1,-1,-1,-1,-1],"loss_changes":[4.362429E8,2.3505462E8,7.646934E7,4.3353472E8,3.1272646E8,0E0,4.3204646E8,2.3701571E8,1.6742144E8,0E0,2.1946262E8,0E0,1.284937E8,2.5103682E8,4.4354678E8,0E0,0E0,0E0,7.755226E7,4.874877E7,1.8330216E7,4.104008E8,5.1690557E8,5.345188E8,8.092123E8,1.5052544E7,1.8343216E7,0E0,0E0,2.023654E6,1.6260032E7,0E0,0E0,0E0,0E0,0E0,0E0,0E0,0E0,0E0,0E0,0E0,0E0,0E0,0E0,0E0,0E0],"parents":[2147483647,0,0,1,1,2,2,3,3,4,4,6,6,7,7,8,8,10,10,12,12,13,13,14,14,18,18,19,19,20,20,21,21,22,22,23,23,24,24,25,25,26,26,29,29,30,30],"right_children":[2,4,6,8,10,-1,12,14,16,-1,18,-1,20,22,24,-1,-1,-1,26,28,30,32,34,36,38,40,42,-1,-1,44,46,-1,-1,-1,-1,-1,-1,-1,-1,-1,-1,-1,-1,-1,-1,-1,-1],"split_conditions":[2.539E6,8.3E4,1.5001E4,7.7632E4,8.7934E4,3.9110251E3,3.061E6,1E0,7.7E5,-4.719783E3,8.8E4,-2.7961313E3,1E1,9E0,3.2322E4,5.2346816E3,2.3180626E2,2.3906204E3,2E1,3.596E6,9E4,5.97E5,5E3,9.95E5,8.06E5,1.038E6,2.37E5,9.2928754E2,4.887075E3,4.1442E4,1.27E5,-1.9685045E2,1.2520444E3,4.5423237E3,-3.1095493E2,-9.156406E2,2.4691E3,5.7284766E3,-6.0865314E2,-4.6514824E1,-8.397094E2,-5.6947034E2,-2.9961494E3,6.1875004E-1,4.9402502E2,2.1195938E3,2.8025626E2],"split_indices":[0,1,1,1,1,0,0,4,0,0,1,0,6,6,1,0,0,0,6,0,1,0,1,0,0,0,0,0,0,1,1,0,0,0,0,0,0,0,0,0,0,0,0,0,0,0,0],"split_type":[0,0,0,0,0,0,0,0,0,0,0,0,0,0,0,0,0,0,0,0,0,0,0,0,0,0,0,0,0,0,0,0,0,0,0,0,0,0,0,0,0,0,0,0,0,0,0],"sum_hessian":[2.97E2,2.88E2,9E0,2.76E2,1.2E1,1E0,8E0,2.74E2,2E0,1E0,1.1E1,1E0,7E0,2.5E2,2.4E1,1E0,1E0,1E0,1E1,2E0,5E0,7.1E1,1.79E2,1.8E1,6E0,8E0,2E0,1E0,1E0,3E0,2E0,4.2E1,2.9E1,1E0,1.78E2,1.3E1,5E0,3E0,3E0,4E0,4E0,1E0,1E0,1E0,2E0,1E0,1E0],"tree_param":{"num_deleted":"0","num_feature":"7","num_nodes":"47","size_leaf_vector":"1"}},{"base_weights":[2.241454E2,3.447476E1,5.6832124E3,2.4567303E2,-2.672516E3,3.3243752E3,3.8521807E3,-3.1357312E2,1.7801879E3,-4.7699946E3,-1.01483746E3,-2.3767126E3,6.314297E3,1.26482704E2,-1.7325025E4,5.846862E3,1.0364284E2,-5.4484434E3,9.863907E1,-2.1139551E2,-8.309199E2,1.09865E4,2.9258125E3,-7.511465E1,3.8959656E3,1.8677814E3,-7.4307754E3,-7.6554985E1,1.3753257E4,-4.2734077E3,1.2475455E3,-6.7800806E3,-9.690208E2,5.2058203E2,-6.2050024E2,7.899E2,4.1540254E3,9.889375E2,4.5330415E3,5.8206226E1,-3.053875E3,7.8761346E2,-2.9874375E3,7.9143228E3,-4.8756378E2,-5.445879E1,-3.4166438E3,2.0929563E3,-9.169214E1,-3.4536096E2,-2.3026848E3,-4.023094E2,-3.375E1,3.635341E2,-3.0030237E2,-2.60625E0,3.9731253E2,1.80165E3,2.3821877E2],"categories":[],"categories_nodes":[],"categories_segments":[],"categories_sizes":[],"default_left":[0,0,0,0,0,0,0,0,0,0,0,0,0,0,0,0,0,0,0,0,0,0,0,0,0,0,0,0,0,0,0,0,0,0,0,0,0,0,0,0,0,0,0,0,0,0,0,0,0,0,0,0,0,0,0,0,0,0,0],"id":23,"left_children":[1,3,5,7,9,-1,11,13,15,17,19,-1,21,23,25,27,29,31,-1,33,-1,35,37,39,-1,-1,-1,41,43,45,47,49,51,-1,53,-1,-1,55,57,-1,-1,-1,-1,-1,-1,-1,-1,-1,-1,-1,-1,-1,-1,-1,-1,-1,-1,-1,-1],"loss_changes":[3.0836067E8,1.6588128E8,5.61528E7,2.3140637E8,6.817509E7,0E0,3.1093715E8,1.4844172E9,4.9028726E8,3.2924848E7,1.7743928E7,0E0,9.450909E7,5.0393133E8,1.0308051E9,9.845433E8,2.6569112E8,4.1149664E7,0E0,9.040652E6,0E0,3.522077E7,1.419512E7,5.241133E8,0E0,0E0,0E0,3.732353E8,1.7906432E9,3.1820166E8,3.7585523E8,2.140896E7,8.0503825E5,0E0,7.487771E6,0E0,0E0,1.350069E6,1.1747732E7,0E0,0E0,0E0,0E0,0E0,0E0,0E0,0E0,0E0,0E0,0E0,0E0,0E0,0E0,0E0,0E0,0E0,0E0,0E0,0E0],"parents":[2147483647,0,0,1,1,2,2,3,3,4,4,6,6,7,7,8,8,9,9,10,10,12,12,13,13,14,14,15,15,16,16,17,17,19,19,21,21,22,22,23,23,27,27,28,28,29,29,30,30,31,31,32,32,34,34,37,37,38,38],"right_children":[2,4,6,8,10,-1,12,14,16,18,20,-1,22,24,26,28,30,32,-1,34,-1,36,38,40,-1,-1,-1,42,44,46,48,50,52,-1,54,-1,-1,56,58,-1,-1,-1,-1,-1,-1,-1,-1,-1,-1,-1,-1,-1,-1,-1,-1,-1,-1,-1,-1],"split_conditions":[2.539E6,1.6E1,1.5001E4,4.4E4,1E0,3.3243752E3,3.061E6,4.3E4,4.9562E4,2.1E1,1E0,-2.3767126E3,1E1,4.2367E4,9E0,8.1E5,5.3E4,1.36E6,9.863907E1,2.7E4,-8.309199E2,3.596E6,9E4,4.0588E4,3.8959656E3,1.8677814E3,-7.4307754E3,7.6E5,9.94E5,5.0456E4,5.6701E4,5.1E4,1.374E6,5.2058203E2,5.8E4,7.899E2,4.1540254E3,3.596E6,1.27E5,5.8206226E1,-3.053875E3,7.8761346E2,-2.9874375E3,7.9143228E3,-4.8756378E2,-5.445879E1,-3.4166438E3,2.0929563E3,-9.169214E1,-3.4536096E2,-2.3026848E3,-4.023094E2,-3.375E1,3.635341E2,-3.0030237E2,-2.60625E0,3.9731253E2,1.80165E3,2.3821877E2],"split_indices":[0,6,1,1,3,0,0,1,1,6,4,0,6,1,6,0,1,0,0,1,0,0,1,1,0,0,0,0,0,1,1,1,0,0,0,0,0,0,1,0,0,0,0,0,0,0,0,0,0,0,0,0,0,0,0,0,0,0,0],"split_type":[0,0,0,0,0,0,0,0,0,0,0,0,0,0,0,0,0,0,0,0,0,0,0,0,0,0,0,0,0,0,0,0,0,0,0,0,0,0,0,0,0,0,0,0,0,0,0,0,0,0,0,0,0,0,0,0,0,0,0],"sum_hessian":[2.97E2,2.88E2,9E0,2.68E2,2E1,1E0,8E0,1.97E2,7.1E1,8E0,1.2E1,1E0,7E0,1.93E2,4E0,2E1,5.1E1,7E0,1E0,9E0,3E0,2E0,5E0,1.91E2,2E0,1E0,3E0,1.2E1,8E0,1E1,4.1E1,5E0,2E0,1E0,8E0,1E0,1E0,3E0,2E0,1.87E2,4E0,1E1,2E0,4E0,4E0,7E0,3E0,8E0,3.3E1,1E0,4E0,1E0,1E0,1E0,7E0,1E0,2E0,1E0,1E0],"tree_param":{"num_deleted":"0","num_feature":"7","num_nodes":"59","size_leaf_vector":"1"}},{"base_weights":[1.7095369E2,-2.8269385E2,2.013402E3,5.7078546E2,-1.4429971E3,-1.9142831E3,3.5193845E3,-4.4453022E1,1.0650872E4,-5.610302E3,-1.7115082E1,2.8192473E3,-1.1062297E4,7.0995327E3,-5.6931995E2,5.593651E2,-1.2817861E4,1.2615728E3,1.6032138E4,1.7027983E3,-1.2000302E4,9.650989E3,-9.700674E2,-3.8045195E3,1.2853425E4,-1.2577244E4,-5.231344E2,4.378574E3,2.3779729E4,3.3607058E3,-5.228419E3,2.167703E2,6.5589473E3,-7.473164E2,-5.5998916E3,4.2328145E3,-1.1478229E3,7.6345063E3,1.271875E3,-4.7663486E3,7.9286885E3,-1.4238145E4,2.5637485E3,7.3908813E2,1.4425604E4,-9.350076E3,-5.2680798E1,-2.363918E3,2.1655E2,3.659344E2,4.6370674E3,-7.825032E2,-4.325215E3,6.9532437E3,-4.0161565E3,9.113054E3,1.5878251E3,-4.344085E3,1.1789511E4,-1.1233489E4,3.02335E3,-9.738882E1,1.7719108E3,7.04178E2,-1.0404703E3,1.6054283E3,2.993382E2,-1.64115E3,2.213494E3,-1.6432898E3,-7.479727E1,-1.3153893E3,5.477951E3,-6.2702017E3,-8.94525E2,6.4088066E3,1.4977039E3,-8.7294226E2,-7.1987534E3,1.6927357E3,-3.206184E2,-9.866563E2,1.0949313E3,3.3099846E3,-1.0790626E1,4.146222E3,-4.312249E3,5.455875E3,1.2133735E3,-3.8899634E3,-3.8523282E2,3.5575003E2,1.155925E3],"categories":[],"categories_nodes":[],"categories_segments":[],"categories_sizes":[],"default_left":[0,0,0,0,0,0,0,0,0,0,0,0,0,0,0,0,0,0,0,0,0,0,0,0,0,0,0,0,0,0,0,0,0,0,0,0,0,0,0,0,0,0,0,0,0,0,0,0,0,0,0,0,0,0,0,0,0,0,0,0,0,0,0,0,0,0,0,0,0,0,0,0,0,0,0,0,0,0,0,0,0,0,0,0,0,0,0,0,0,0,0,0,0],"id":24,"left_children":[1,3,5,7,9,11,13,15,17,19,21,23,25,27,29,31,33,35,37,39,41,43,45,47,49,51,-1,53,55,57,59,61,-1,63,-1,65,-1,-1,67,69,71,73,-1,-1,75,77,79,-1,81,-1,-1,-1,-1,83,-1,-1,-1,85,87,89,91,-1,-1,-1,-1,-1,-1,-1,-1,-1,-1,-1,-1,-1,-1,-1,-1,-1,-1,-1,-1,-1,-1,-1,-1,-1,-1,-1,-1,-1,-1,-1,-1],"loss_changes":[2.4964416E8,2.384944E8,3.5572355E8,8.625039E8,6.059966E8,7.673282E8,6.3348314E8,1.0252615E9,3.839847E8,1.2354324E9,7.1878176E8,8.4646976E8,6.277037E7,9.3975936E8,4.0208912E8,9.221789E8,4.0961376E8,7.666161E7,6.6256205E8,5.613815E8,7.653828E8,2.0467885E8,5.4533466E8,1.3279988E8,1.3258496E8,5.411533E7,0E0,1.05364454E9,2.0510515E8,8.3052077E8,5.294873E8,3.900411E8,0E0,3.340111E7,0E0,5.516584E6,0E0,0E0,1.6387874E8,2.1124496E7,9.7053766E8,9.12628E8,0E0,0E0,1.5510726E8,5.904355E8,3.821543E8,0E0,7.21777E7,0E0,0E0,0E0,0E0,5.422056E8,0E0,0E0,0E0,1.4740237E9,2.2369818E8,8.68064E7,3.054136E6,0E0,0E0,0E0,0E0,0E0,0E0,0E0,0E0,0E0,0E0,0E0,0E0,0E0,0E0,0E0,0E0,0E0,0E0,0E0,0E0,0E0,0E0,0E0,0E0,0E0,0E0,0E0,0E0,0E0,0E0,0E0,0E0],"parents":[2147483647,0,0,1,1,2,2,3,3,4,4,5,5,6,6,7,7,8,8,9,9,10,10,11,11,12,12,13,13,14,14,15,15,16,16,17,17,18,18,19,19,20,20,21,21,22,22,23,23,24,24,25,25,27,27,28,28,29,29,30,30,31,31,33,33,35,35,38,38,39,39,40,40,41,41,44,44,45,45,46,46,48,48,53,53,57,57,58,58,59,59,60,60],"right_children":[2,4,6,8,10,12,14,16,18,20,22,24,26,28,30,32,34,36,38,40,42,44,46,48,50,52,-1,54,56,58,60,62,-1,64,-1,66,-1,-1,68,70,72,74,-1,-1,76,78,80,-1,82,-1,-1,-1,-1,84,-1,-1,-1,86,88,90,92,-1,-1,-1,-1,-1,-1,-1,-1,-1,-1,-1,-1,-1,-1,-1,-1,-1,-1,-1,-1,-1,-1,-1,-1,-1,-1,-1,-1,-1,-1,-1,-1],"split_conditions":[1E0,3.1604E4,8.7E5,3E4,3.8488E4,7.7E5,1E1,2.82E4,1.17E5,6.8E5,4.0023E4,6.8E5,8.1E5,6.0241E4,6E4,2.76E4,4.6E5,6.4E4,6.4E5,1.47E5,1E0,4E4,4.1E4,1.1E1,3.9485E4,7.85E5,-5.231344E2,4.8E4,9.54E5,4.5078E4,1.468E6,1.204E6,6.5589473E3,8.7E4,-5.5998916E3,5.7E4,-1.1478229E3,7.6345063E3,6.87E5,1.26E5,3.3019E4,3.6054E4,2.5637485E3,7.3908813E2,1.1E1,4.0588E4,4.528E4,-2.363918E3,5.3E4,3.659344E2,4.6370674E3,-7.825032E2,-4.325215E3,1.37E6,-4.0161565E3,9.113054E3,1.5878251E3,9.54E5,1.1E1,8.7934E4,9E4,-9.738882E1,1.7719108E3,7.04178E2,-1.0404703E3,1.6054283E3,2.993382E2,-1.64115E3,2.213494E3,-1.6432898E3,-7.479727E1,-1.3153893E3,5.477951E3,-6.2702017E3,-8.94525E2,6.4088066E3,1.4977039E3,-8.7294226E2,-7.1987534E3,1.6927357E3,-3.206184E2,-9.866563E2,1.0949313E3,3.3099846E3,-1.0790626E1,4.146222E3,-4.312249E3,5.455875E3,1.2133735E3,-3.8899634E3,-3.8523282E2,3.5575003E2,1.155925E3],"split_indices":[2,1,0,1,1,0,6,1,0,0,1,0,0,1,1,1,0,0,0,0,5,1,1,6,1,0,0,1,0,1,0,0,0,0,0,0,0,0,0,0,1,1,0,0,6,1,1,0,1,0,0,0,0,0,0,0,0,0,6,1,1,0,0,0,0,0,0,0,0,0,0,0,0,0,0,0,0,0,0,0,0,0,0,0,0,0,0,0,0,0,0,0,0],"split_type":[0,0,0,0,0,0,0,0,0,0,0,0,0,0,0,0,0,0,0,0,0,0,0,0,0,0,0,0,0,0,0,0,0,0,0,0,0,0,0,0,0,0,0,0,0,0,0,0,0,0,0,0,0,0,0,0,0,0,0,0,0,0,0,0,0,0,0,0,0,0,0,0,0,0,0,0,0,0,0,0,0,0,0,0,0,0,0,0,0,0,0,0,0],"sum_hessian":[2.97E2,2.39E2,5.8E1,1.38E2,1.01E2,1.6E1,4.2E1,1.31E2,7E0,2.5E1,7.6E1,1.1E1,5E0,2.2E1,2E1,1.26E2,5E0,3E0,4E0,1.2E1,1.3E1,6E0,7E1,7E0,4E0,4E0,1E0,2E1,2E0,1.1E1,9E0,1.25E2,1E0,2E0,3E0,2E0,1E0,2E0,2E0,6E0,6E0,1.2E1,1E0,3E0,3E0,6E0,6.4E1,3E0,4E0,1E0,3E0,1E0,3E0,1.8E1,2E0,1E0,1E0,6E0,5E0,5E0,4E0,1.15E2,1E1,1E0,1E0,1E0,1E0,1E0,1E0,5E0,1E0,3E0,3E0,7E0,5E0,1E0,2E0,5E0,1E0,9E0,5.5E1,2E0,2E0,1.1E1,7E0,2E0,4E0,2E0,3E0,4E0,1E0,2E0,2E0],"tree_param":{"num_deleted":"0","num_feature":"7","num_nodes":"93","size_leaf_vector":"1"}},{"base_weights":[1.9312347E2,2.8063734E1,4.9440376E3,-1.1296377E3,3.6904688E2,2.6793215E3,7.6712812E3,-1.6308346E1,-6.1382603E3,7.1200825E3,-2.5541295E2,2.8273125E3,-1.5583333E1,3.5325376E3,7.1348755E2,-1.0120275E3,5.27405E3,1.3993229E3,-1.1722151E4,8.5191406E2,9.297863E3,-5.6779575E3,1.6955362E2,-2.0185875E3,2.67275E3,-3.7342947E2,-5.9521406E3,-5.881875E2,7.6203754E2,-4.715747E3,-1.4383828E3,5.293467E3,-1.6062383E3,1.1638521E4,2.756975E3,1.080411E3,-1.3556151E4,5.335523E3,-2.0448613E2,3.2924375E3,2.91E1,-2.6606E2,2.287125E3,-3.3974932E3,9.587063E2,6.0592505E2,-8.7060944E2,2.0303908E2,1.9820275E3,3.8282556E3,2.3063203E2,-4.1725314E2,2.9022375E3,-1.0271786E3,8.569494E2,-2.279449E3,-5.690225E3,-1.3691666E2,5.544427E3,-2.2623333E3,6.7725624E1,4.1162503E2,1.358025E3],"categories":[],"categories_nodes":[],"categories_segments":[],"categories_sizes":[],"default_left":[0,0,0,0,0,0,0,0,0,0,0,0,0,0,0,0,0,0,0,0,0,0,0,0,0,0,0,0,0,0,0,0,0,0,0,0,0,0,0,0,0,0,0,0,0,0,0,0,0,0,0,0,0,0,0,0,0,0,0,0,0,0,0],"id":25,"left_children":[1,3,5,7,9,11,13,15,17,19,21,-1,23,-1,-1,25,-1,27,29,31,33,35,37,-1,39,41,43,45,-1,-1,-1,47,-1,49,51,53,55,57,59,61,-1,-1,-1,-1,-1,-1,-1,-1,-1,-1,-1,-1,-1,-1,-1,-1,-1,-1,-1,-1,-1,-1,-1],"loss_changes":[2.3354827E8,1.1450156E8,4.1210496E7,3.6793216E8,9.4614675E8,1.2738781E8,5.888171E7,9.8145466E8,5.2147168E8,2.5144218E8,4.756692E8,0E0,1.262653E8,0E0,0E0,1.6497888E8,0E0,1.5098206E7,1.1845869E8,1.9372866E8,1.8225267E8,8.1330234E8,3.720884E8,0E0,7.66144E6,2.038516E8,3.310898E8,2.3964456E7,0E0,0E0,0E0,1.9780696E7,0E0,1.1218445E8,1.5691062E8,8.178132E7,8.156429E7,9.9825325E8,5.698716E8,3.270188E6,0E0,0E0,0E0,0E0,0E0,0E0,0E0,0E0,0E0,0E0,0E0,0E0,0E0,0E0,0E0,0E0,0E0,0E0,0E0,0E0,0E0,0E0,0E0],"parents":[2147483647,0,0,1,1,2,2,3,3,4,4,5,5,6,6,7,7,8,8,9,9,10,10,12,12,15,15,17,17,18,18,19,19,20,20,21,21,22,22,24,24,25,25,26,26,27,27,31,31,33,33,34,34,35,35,36,36,37,37,38,38,39,39],"right_children":[2,4,6,8,10,12,14,16,18,20,22,-1,24,-1,-1,26,-1,28,30,32,34,36,38,-1,40,42,44,46,-1,-1,-1,48,-1,50,52,54,56,58,60,62,-1,-1,-1,-1,-1,-1,-1,-1,-1,-1,-1,-1,-1,-1,-1,-1,-1,-1,-1,-1,-1,-1,-1],"split_conditions":[2.539E6,1.4465E4,3.596E6,8.12E5,1.66E4,1.5001E4,1E1,7.15E5,8E0,1.05E5,2E4,2.8273125E3,3.061E6,3.5325376E3,7.1348755E2,5.71E5,5.27405E3,9.9E5,1.204E6,8E4,1E0,1.6E5,2.3E4,-2.0185875E3,1.27E5,4.6E5,5.97E5,9.85E5,7.6203754E2,-4.715747E3,-1.4383828E3,5.4E4,-1.6062383E3,1E0,1E1,5.8E4,8.4E5,8.89E5,2.4524E4,9E4,2.91E1,-2.6606E2,2.287125E3,-3.3974932E3,9.587063E2,6.0592505E2,-8.7060944E2,2.0303908E2,1.9820275E3,3.8282556E3,2.3063203E2,-4.1725314E2,2.9022375E3,-1.0271786E3,8.569494E2,-2.279449E3,-5.690225E3,-1.3691666E2,5.544427E3,-2.2623333E3,6.7725624E1,4.1162503E2,1.358025E3],"split_indices":[0,1,0,0,1,1,6,0,6,0,1,0,0,0,0,0,0,0,0,0,4,0,1,0,1,0,0,0,0,0,0,0,0,5,6,0,0,0,1,1,0,0,0,0,0,0,0,0,0,0,0,0,0,0,0,0,0,0,0,0,0,0,0],"split_type":[0,0,0,0,0,0,0,0,0,0,0,0,0,0,0,0,0,0,0,0,0,0,0,0,0,0,0,0,0,0,0,0,0,0,0,0,0,0,0,0,0,0,0,0,0,0,0,0,0,0,0,0,0,0,0,0,0,0,0,0,0,0,0],"sum_hessian":[2.97E2,2.88E2,9E0,6.5E1,2.23E2,6E0,3E0,5.4E1,1.1E1,1.8E1,2.05E2,1E0,5E0,1E0,2E0,5.2E1,2E0,5E0,6E0,5E0,1.3E1,1.4E1,1.91E2,1E0,4E0,4.7E1,5E0,2E0,3E0,3E0,3E0,3E0,2E0,9E0,4E0,8E0,6E0,1.2E1,1.79E2,3E0,1E0,4.5E1,2E0,3E0,2E0,1E0,1E0,1E0,2E0,8E0,1E0,3E0,1E0,2E0,6E0,4E0,2E0,9E0,3E0,9E0,1.7E2,2E0,1E0],"tree_param":{"num_deleted":"0","num_feature":"7","num_nodes":"63","size_leaf_vector":"1"}},{"base_weights":[1.628653E2,2.4470966E1,4.146175E3,-4.5421777E3,8.8254616E1,2.2480178E3,6.4314062E3,7.702471E1,-1.868221E3,2.1368858E2,-2.3640117E3,2.403225E3,-4.75625E1,3.0026626E3,5.7078754E2,-1.8266917E2,1.2434932E3,-1.2128431E3,-1.8542047E3,-1.7157938E3,2.23065E3,1.5970525E2,-1.3430263E4,6.04649E3,4.2415286E2,-2.2006135E3,-1.9291936E2,2.7470938E3,2.473125E1,1.2339996E1,2.308522E3,1.0809469E3,-5.5768223E3,2.0028802E2,6.0502754E3,6.4571423E2,-6.952329E2,-7.6172253E2,-7.6246E1,2.1444551E2,-4.9245276E2,3.292875E2,1.1543251E3],"categories":[],"categories_nodes":[],"categories_segments":[],"categories_sizes":[],"default_left":[0,0,0,0,0,0,0,0,0,0,0,0,0,0,0,0,0,0,0,0,0,0,0,0,0,0,0,0,0,0,0,0,0,0,0,0,0,0,0,0,0,0,0],"id":26,"left_children":[1,3,5,7,9,11,13,-1,-1,15,17,-1,19,-1,-1,21,23,25,-1,-1,27,29,31,33,35,37,39,41,-1,-1,-1,-1,-1,-1,-1,-1,-1,-1,-1,-1,-1,-1,-1],"loss_changes":[1.6417626E8,8.458006E7,2.891936E7,3.394797E7,8.847805E7,9.298272E7,4.576315E7,0E0,0E0,1.1165784E8,5.401463E7,0E0,9.028649E7,0E0,0E0,9.0020096E8,2.9651728E8,1.1664868E7,0E0,0E0,5.320692E6,1.7301918E8,5.063698E8,8.2204525E8,3.1770272E8,3.307494E6,1.0377958E7,3.038606E6,0E0,0E0,0E0,0E0,0E0,0E0,0E0,0E0,0E0,0E0,0E0,0E0,0E0,0E0,0E0],"parents":[2147483647,0,0,1,1,2,2,3,3,4,4,5,5,6,6,9,9,10,10,12,12,15,15,16,16,17,17,20,20,21,21,22,22,23,23,24,24,25,25,26,26,27,27],"right_children":[2,4,6,8,10,12,14,-1,-1,16,18,-1,20,-1,-1,22,24,26,-1,-1,28,30,32,34,36,38,40,42,-1,-1,-1,-1,-1,-1,-1,-1,-1,-1,-1,-1,-1,-1,-1],"split_conditions":[2.539E6,5.1E4,3.596E6,2.1125E4,1.7E1,1.5001E4,1E1,7.702471E1,-1.868221E3,4.4E4,1E0,2.403225E3,3.061E6,3.0026626E3,5.7078754E2,4.3E4,1E1,1.9E1,-1.8542047E3,-1.7157938E3,1.27E5,4.2367E4,9E0,6.0241E4,6E4,6.8E4,9.2233E4,9E4,2.473125E1,1.2339996E1,2.308522E3,1.0809469E3,-5.5768223E3,2.0028802E2,6.0502754E3,6.4571423E2,-6.952329E2,-7.6172253E2,-7.6246E1,2.1444551E2,-4.9245276E2,3.292875E2,1.1543251E3],"split_indices":[0,0,0,1,6,1,6,0,0,1,4,0,0,0,0,1,6,6,0,0,1,1,6,1,1,1,1,1,0,0,0,0,0,0,0,0,0,0,0,0,0,0,0],"split_type":[0,0,0,0,0,0,0,0,0,0,0,0,0,0,0,0,0,0,0,0,0,0,0,0,0,0,0,0,0,0,0,0,0,0,0,0,0,0,0,0,0,0,0],"sum_hessian":[2.97E2,2.88E2,9E0,3E0,2.85E2,6E0,3E0,1E0,2E0,2.72E2,1.3E1,1E0,5E0,1E0,2E0,1.97E2,7.5E1,1.1E1,2E0,1E0,4E0,1.93E2,4E0,1E1,6.5E1,5E0,6E0,3E0,1E0,1.91E2,2E0,1E0,3E0,8E0,2E0,4E1,2.5E1,4E0,1E0,4E0,2E0,2E0,1E0],"tree_param":{"num_deleted":"0","num_feature":"7","num_nodes":"43","size_leaf_vector":"1"}},{"base_weights":[1.3089981E2,-1.3898131E2,1.9267509E3,4.2482486E2,-6.889208E2,2.7098416E3,-2.8318877E3,-8.195709E1,1.0827515E4,-3.6702148E3,7.5724645E0,6.065055E2,5.3336333E3,-8.845902E2,-1.8852563E3,2.2496196E2,-5.67495E3,1.0122871E3,6.0915938E3,-7.7791997E3,2.2666018E3,5.080338E3,-6.200642E2,-1.4656791E3,3.8979922E3,3.786844E3,2.4594375E3,1.1353126E2,-1.2949565E3,-4.7641464E2,2.6216472E3,3.5445144E3,-9.8765924E2,4.8948633E3,-1.135562E4,5.528342E3,-4.823529E3,1.4714304E3,1.5416583E4,-5.2520312E3,3.597321E2,-2.3956108E2,-1.6418656E3,2.889669E3,3.8120834E2,-5.9733124E2,3.5486562E3,-7.9452835E1,-4.6501407E2,-4.023372E1,-2.4947515E3,4.1154E1,5.248247E3,1.352604E3,2.4242755E2,-8.947797E2,4.279088E3,-1.5706072E3,-8.391388E3,-6.584311E2,2.5405525E3,-6.461836E1,-1.8863326E3,2.1021267E3,-2.5751484E3,5.677613E3,1.2598501E3,-2.0552441E3,1.3477672E3,-3.749049E2,7.218643E2,1.7606671E2,-1.2756094E3,1.136775E3,-1.286975E3,2.0760752E3,5.52218E2],"categories":[],"categories_nodes":[],"categories_segments":[],"categories_sizes":[],"default_left":[0,0,0,0,0,0,0,0,0,0,0,0,0,0,0,0,0,0,0,0,0,0,0,0,0,0,0,0,0,0,0,0,0,0,0,0,0,0,0,0,0,0,0,0,0,0,0,0,0,0,0,0,0,0,0,0,0,0,0,0,0,0,0,0,0,0,0,0,0,0,0,0,0,0,0,0,0],"id":27,"left_children":[1,3,5,7,9,11,13,15,17,19,21,23,25,27,-1,29,-1,31,-1,33,35,37,39,41,43,-1,45,-1,47,49,51,53,-1,55,57,59,61,63,65,67,69,71,-1,-1,73,-1,75,-1,-1,-1,-1,-1,-1,-1,-1,-1,-1,-1,-1,-1,-1,-1,-1,-1,-1,-1,-1,-1,-1,-1,-1,-1,-1,-1,-1,-1,-1],"loss_changes":[1.4469834E8,8.090808E7,1.5300533E8,6.8096186E8,2.7411936E8,1.8440146E8,3.4776996E7,7.2105984E8,5.376057E8,6.2748954E8,3.470063E8,1.4212456E8,2.832129E8,3.0815805E6,0E0,2.0800939E8,0E0,5.5268972E7,0E0,7.355009E8,2.8105392E8,4.249462E8,4.4211258E8,6.2561924E7,1.5765667E8,0E0,6.523711E7,0E0,6.405695E5,2.5649614E8,1.0322075E9,4.27166E6,0E0,3.377509E8,1.0738679E9,2.0024427E8,2.5635432E7,6.1677235E8,3.8598144E7,2.9562874E8,2.697918E8,3.8972644E7,0E0,0E0,1.117719E8,0E0,4.484616E7,0E0,0E0,0E0,0E0,0E0,0E0,0E0,0E0,0E0,0E0,0E0,0E0,0E0,0E0,0E0,0E0,0E0,0E0,0E0,0E0,0E0,0E0,0E0,0E0,0E0,0E0,0E0,0E0,0E0,0E0],"parents":[2147483647,0,0,1,1,2,2,3,3,4,4,5,5,6,6,7,7,8,8,9,9,10,10,11,11,12,12,13,13,15,15,17,17,19,19,20,20,21,21,22,22,23,23,24,24,26,26,28,28,29,29,30,30,31,31,33,33,34,34,35,35,36,36,37,37,38,38,39,39,40,40,41,41,44,44,46,46],"right_children":[2,4,6,8,10,12,14,16,18,20,22,24,26,28,-1,30,-1,32,-1,34,36,38,40,42,44,-1,46,-1,48,50,52,54,-1,56,58,60,62,64,66,68,70,72,-1,-1,74,-1,76,-1,-1,-1,-1,-1,-1,-1,-1,-1,-1,-1,-1,-1,-1,-1,-1,-1,-1,-1,-1,-1,-1,-1,-1,-1,-1,-1,-1,-1,-1],"split_conditions":[1E0,3.1604E4,1.6E1,3E4,3.61E4,3.2322E4,1.9E1,2.9223E4,1.17E5,1.1E1,4.0023E4,9.95E5,8.06E5,1E0,-1.8852563E3,7.7E5,-5.67495E3,6.4E4,6.0915938E3,9E0,1.3E1,9.94E5,4.5E4,2.4678E4,1.37E6,3.786844E3,9.54E5,1.1353126E2,5.4E4,2.76E4,2.6E4,5.7E4,-9.8765924E2,1.18E6,8.7E5,1.26E5,5.2E4,7.5E5,1.36E6,1.4E1,9.29E5,8.61E5,-1.6418656E3,2.889669E3,8E0,-5.9733124E2,1E1,-7.9452835E1,-4.6501407E2,-4.023372E1,-2.4947515E3,4.1154E1,5.248247E3,1.352604E3,2.4242755E2,-8.947797E2,4.279088E3,-1.5706072E3,-8.391388E3,-6.584311E2,2.5405525E3,-6.461836E1,-1.8863326E3,2.1021267E3,-2.5751484E3,5.677613E3,1.2598501E3,-2.0552441E3,1.3477672E3,-3.749049E2,7.218643E2,1.7606671E2,-1.2756094E3,1.136775E3,-1.286975E3,2.0760752E3,5.52218E2],"split_indices":[4,1,6,1,1,1,6,1,0,6,1,0,0,3,0,0,0,0,0,6,6,0,1,1,0,0,0,0,0,1,1,0,0,0,0,0,0,0,0,6,0,0,0,0,6,0,6,0,0,0,0,0,0,0,0,0,0,0,0,0,0,0,0,0,0,0,0,0,0,0,0,0,0,0,0,0,0],"split_type":[0,0,0,0,0,0,0,0,0,0,0,0,0,0,0,0,0,0,0,0,0,0,0,0,0,0,0,0,0,0,0,0,0,0,0,0,0,0,0,0,0,0,0,0,0,0,0,0,0,0,0,0,0,0,0,0,0,0,0,0,0,0,0,0,0,0,0,0,0,0,0,0,0,0,0,0,0],"sum_hessian":[2.97E2,2.59E2,3.8E1,1.28E2,1.31E2,3.3E1,5E0,1.23E2,5E0,2.4E1,1.07E2,1.9E1,1.4E1,4E0,1E0,1.22E2,1E0,3E0,2E0,1.4E1,1E1,1.1E1,9.6E1,1.2E1,7E0,3E0,1.1E1,1E0,3E0,9.5E1,2.7E1,2E0,1E0,3E0,1.1E1,7E0,3E0,9E0,2E0,1.6E1,8E1,1E1,2E0,2E0,5E0,2E0,9E0,1E0,2E0,9.2E1,3E0,2.4E1,3E0,1E0,1E0,2E0,1E0,9E0,2E0,2E0,5E0,1E0,2E0,6E0,3E0,1E0,1E0,1.4E1,2E0,4.5E1,3.5E1,9E0,1E0,3E0,2E0,2E0,7E0],"tree_param":{"num_deleted":"0","num_feature":"7","num_nodes":"77","size_leaf_vector":"1"}},{"base_weights":[1.1423289E2,5.3018734E1,4.6002188E3,-7.933419E2,2.9565692E2,2.24085E3,3.4618753E2,2.5409213E2,-4.371557E3,5.5735835E3,-2.0602167E2,1.1286487E3,-4.04975E3,-8.185536E2,-6.649276E3,7.1605664E2,7.145022E3,-4.521883E3,1.2364299E2,-1.22892296E2,4.1024346E3,8.352708E2,-1.0364844E4,1.34425E2,-6.402E2,-1.0141276E3,-8.114443E3,4.2726143E3,-1.2794117E3,8.553564E3,3.6066145E3,7.381328E2,-1.0638776E4,4.1299277E3,-1.5854805E2,2.3672476E2,-2.626779E3,-1.60675E2,4.9637814E2,-4.1007E3,-1.4121376E3,-2.5256682E2,3.1977933E2,-7.1694965E2,2.605922E2,-2.7470615E3,-2.7898126E2,4.134453E2,1.9434006E3,3.2240928E3,7.73011E2,-2.0723125E2,1.7784E3,-8.3779376E2,6.437629E2,-1.9080875E3,-5.446453E3,3.2154523E2,6.124088E3,-2.3554426E3,2.9629105E1],"categories":[],"categories_nodes":[],"categories_segments":[],"categories_sizes":[],"default_left":[0,0,0,0,0,0,0,0,0,0,0,0,0,0,0,0,0,0,0,0,0,0,0,0,0,0,0,0,0,0,0,0,0,0,0,0,0,0,0,0,0,0,0,0,0,0,0,0,0,0,0,0,0,0,0,0,0,0,0,0,0],"id":28,"left_children":[1,3,5,7,9,-1,-1,11,13,15,17,19,21,23,25,27,29,31,33,35,-1,37,39,41,-1,43,45,47,-1,49,51,53,55,57,59,-1,-1,-1,-1,-1,-1,-1,-1,-1,-1,-1,-1,-1,-1,-1,-1,-1,-1,-1,-1,-1,-1,-1,-1,-1,-1],"loss_changes":[8.158864E7,6.081559E7,3.0933672E7,2.4847514E8,6.101475E8,0E0,0E0,2.0029634E8,1.1594835E8,1.4754982E8,3.0076714E8,6.925685E8,2.8630173E8,9.062008E6,6.607885E7,1.24507656E8,4.391053E7,4.904772E8,2.233707E8,3.2970675E8,0E0,7.625206E6,1.0434272E7,5.444609E6,0E0,9.846303E6,4.3910016E7,1.6605992E7,0E0,1.0340538E8,6.3950216E7,5.0726544E7,1.0963155E8,6.254858E8,3.669793E8,0E0,0E0,0E0,0E0,0E0,0E0,0E0,0E0,0E0,0E0,0E0,0E0,0E0,0E0,0E0,0E0,0E0,0E0,0E0,0E0,0E0,0E0,0E0,0E0,0E0,0E0],"parents":[2147483647,0,0,1,1,2,2,3,3,4,4,7,7,8,8,9,9,10,10,11,11,12,12,13,13,14,14,15,15,16,16,17,17,18,18,19,19,21,21,22,22,23,23,25,25,26,26,27,27,29,29,30,30,31,31,32,32,33,33,34,34],"right_children":[2,4,6,8,10,-1,-1,12,14,16,18,20,22,24,26,28,30,32,34,36,-1,38,40,42,-1,44,46,48,-1,50,52,54,56,58,60,-1,-1,-1,-1,-1,-1,-1,-1,-1,-1,-1,-1,-1,-1,-1,-1,-1,-1,-1,-1,-1,-1,-1,-1,-1,-1],"split_conditions":[3.596E6,1.4465E4,1E1,1.15E4,1.66E4,2.24085E3,3.4618753E2,8.12E5,1.05E5,1.05E5,2E4,5.97E5,8E0,7.4E4,1.2E4,8E4,1E0,1.6E5,2.3E4,5.71E5,4.1024346E3,9.9E5,8.5E5,5.5E4,-6.402E2,1.78E5,1E0,1.5001E4,-1.2794117E3,1.62E4,9.95E5,5.8E4,9.54E5,2.2671E4,2.4E4,2.3672476E2,-2.626779E3,-1.60675E2,4.9637814E2,-4.1007E3,-1.4121376E3,-2.5256682E2,3.1977933E2,-7.1694965E2,2.605922E2,-2.7470615E3,-2.7898126E2,4.134453E2,1.9434006E3,3.2240928E3,7.73011E2,-2.0723125E2,1.7784E3,-8.3779376E2,6.437629E2,-1.9080875E3,-5.446453E3,3.2154523E2,6.124088E3,-2.3554426E3,2.9629105E1],"split_indices":[0,1,6,1,1,0,0,0,0,0,1,0,6,0,1,0,4,0,1,0,0,0,0,0,0,0,4,1,0,1,0,0,0,1,1,0,0,0,0,0,0,0,0,0,0,0,0,0,0,0,0,0,0,0,0,0,0,0,0,0,0],"split_type":[0,0,0,0,0,0,0,0,0,0,0,0,0,0,0,0,0,0,0,0,0,0,0,0,0,0,0,0,0,0,0,0,0,0,0,0,0,0,0,0,0,0,0,0,0,0,0,0,0,0,0,0,0,0,0,0,0,0,0,0,0],"sum_hessian":[2.97E2,2.94E2,3E0,6.5E1,2.29E2,1E0,2E0,5.1E1,1.4E1,1.9E1,2.1E2,4.3E1,8E0,6E0,8E0,5E0,1.4E1,1.4E1,1.96E2,4E1,3E0,5E0,3E0,4E0,2E0,2E0,6E0,3E0,2E0,9E0,5E0,8E0,6E0,1.2E1,1.84E2,3.7E1,3E0,2E0,3E0,1E0,2E0,2E0,2E0,1E0,1E0,5E0,1E0,2E0,1E0,6E0,3E0,2E0,3E0,2E0,6E0,5E0,1E0,1.1E1,1E0,5E0,1.79E2],"tree_param":{"num_deleted":"0","num_feature":"7","num_nodes":"61","size_leaf_vector":"1"}},{"base_weights":[7.420506E1,2.2527065E1,3.8669062E3,-3.226087E3,6.695148E1,1.9047375E3,2.769375E2,2.3274317E1,-1.305951E3,3.873334E2,-4.295262E2,5.126347E2,-3.2686501E3,-9.5968243E2,1.3339341E3,2.2089973E2,8.790266E3,-5.7034247E2,-7.386525E3,2.3886904E3,-2.7558281E3,1.2560502E2,-1.5962686E3,6.715669E3,4.7822815E2,5.2235798E1,-1.1375149E3,-4.470183E3,-5.3485547E2,1.9710149E3,1.2301582E2,2.2653282E2,-1.0827113E3],"categories":[],"categories_nodes":[],"categories_segments":[],"categories_sizes":[],"default_left":[0,0,0,0,0,0,0,0,0,0,0,0,0,0,0,0,0,0,0,0,0,0,0,0,0,0,0,0,0,0,0,0,0],"id":29,"left_children":[1,3,5,7,9,-1,-1,-1,-1,11,13,15,-1,17,19,21,23,25,27,29,31,-1,-1,-1,-1,-1,-1,-1,-1,-1,-1,-1,-1],"loss_changes":[5.8320656E7,4.2789736E7,2.33674E7,1.5231756E7,4.6612612E7,0E0,0E0,0E0,0E0,2.572336E8,1.0879472E8,4.2549107E8,0E0,2.1848534E8,1.2305278E8,1.9075293E8,5.513198E8,2.0450634E8,1.8396678E8,1.793206E8,2.0698608E7,0E0,0E0,0E0,0E0,0E0,0E0,0E0,0E0,0E0,0E0,0E0,0E0],"parents":[2147483647,0,0,1,1,2,2,3,3,4,4,9,9,10,10,11,11,13,13,14,14,15,15,16,16,17,17,18,18,19,19,20,20],"right_children":[2,4,6,8,10,-1,-1,-1,-1,12,14,16,-1,18,20,22,24,26,28,30,32,-1,-1,-1,-1,